{"canvasId":"707af257-1149-45b5-9013-480f3ad7cbba","canvas":[{"id":"707af257-1149-45b5-9013-480f3ad7cbba","title":"{panel}1","layerData":{"#5b9bd5":{"name":"#5B9BD5","order":1,"visible":true}},"groupData":{},"displays":[{"id":"6afc2b19-af0a-4a66-b945-54d873f5098e","name":null,"type":"TEXT","x":40.77751435326651,"y":63.36813709986029,"angle":0,"scale":{"x":0.1027837259100642,"y":0.1027837259100642},"skew":{"x":0,"y":0},"pivot":{"x":0,"y":0},"localSkew":{"x":0,"y":0},"offsetX":40.76415246938832,"offsetY":65.29122051753629,"lockRatio":true,"isClosePath":true,"zOrder":1,"sourceId":"f938122d-5005-455c-bcad-6e590e8c7121","groupTag":"f20d0308-0faf-442c-bfea-61848d4d2854","layerTag":"#5b9bd5","layerColor":"#5b9bd5","visible":true,"originColor":"#000000","enableTransform":true,"visibleState":true,"lockState":false,"resourceOrigin":"","customData":{},"rootComponentId":"","minCanvasVersion":"0.0.0","fill":{"paintType":"color","visible":false,"color":0,"alpha":1},"stroke":{"paintType":"color","visible":true,"color":0,"alpha":1,"width":1,"cap":"butt","join":"miter","miterLimit":4,"alignment":0.5},"width":45.1044179994048,"height":8.636916407844494,"isFill":false,"lineColor":16421416,"fillColor":"#f9932b","text":"abcdefghijklmnopqrstuvwxyz\nABCDEFGHIJKLMONPQRSTUVWXYZ\n ,.;:+=-_()*&^%$#@!~`\"'.,<>/?\\|][{}-=_+`~","resolution":1,"style":{"fontSize":7.400428265524623,"fontFamily":"Lato","fontSubfamily":"Regular","fontSource":"build-in","letterSpacing":0,"leading":0,"align":"left","curveX":56,"curveY":0,"isUppercase":false,"isWeld":false,"direction":"auto","writingMode":"horizontal-tb","textOrientation":"mixed"},"fontData":{"fontInfo":{"unitsPerEm":2000,"lineHeight":30.48,"ascent":25.0698,"descent":-5.4102,"capHeight":18.199099999999998,"xHeight":12.8651,"lineGap":0},"glyphData":{"a":{"dPath":"M11.3 0L10.3 0Q9.97 0 9.77 -0.1Q9.56 -0.2 9.5 -0.53L9.25 -1.73Q8.74 -1.27 8.25 -0.91Q7.77 -0.55 7.24 -0.3Q6.71 -0.05 6.1 0.08Q5.5 0.2 4.76 0.2Q4.01 0.2 3.36 -0.01Q2.71 -0.22 2.22 -0.63Q1.74 -1.05 1.45 -1.7Q1.17 -2.34 1.17 -3.21Q1.17 -3.98 1.59 -4.68Q2.01 -5.38 2.94 -5.93Q3.87 -6.48 5.38 -6.83Q6.9 -7.18 9.08 -7.23L9.08 -8.23Q9.08 -9.73 8.44 -10.5Q7.8 -11.26 6.54 -11.26Q5.72 -11.26 5.15 -11.06Q4.58 -10.85 4.17 -10.59Q3.76 -10.33 3.46 -10.12Q3.16 -9.91 2.87 -9.91Q2.64 -9.91 2.47 -10.03Q2.3 -10.15 2.2 -10.33L1.79 -11.05Q2.86 -12.08 4.09 -12.59Q5.32 -13.09 6.82 -13.09Q7.9 -13.09 8.74 -12.74Q9.58 -12.38 10.15 -11.75Q10.72 -11.11 11.01 -10.21Q11.3 -9.31 11.3 -8.23ZM5.44 -1.38Q6.03 -1.38 6.53 -1.5Q7.02 -1.63 7.46 -1.85Q7.9 -2.07 8.3 -2.39Q8.7 -2.71 9.08 -3.11L9.08 -5.79Q7.52 -5.74 6.43 -5.54Q5.33 -5.35 4.65 -5.03Q3.96 -4.71 3.65 -4.28Q3.34 -3.85 3.34 -3.31Q3.34 -2.81 3.51 -2.44Q3.67 -2.07 3.95 -1.84Q4.23 -1.6 4.61 -1.49Q4.99 -1.38 5.44 -1.38Z","advanceWidth":12.877799999999999,"advanceHeight":25.4,"leftBearing":1.1683999999999999,"topBearing":7.3533,"bbox":{"minX":1.1683999999999999,"minY":-0.2032,"maxX":11.302999999999999,"maxY":13.0937}},"b":{"dPath":"M1.93 0L1.93 -18.71L4.2 -18.71L4.2 -11.01Q5 -11.94 6.04 -12.5Q7.07 -13.07 8.41 -13.07Q9.53 -13.07 10.43 -12.65Q11.33 -12.23 11.96 -11.4Q12.6 -10.57 12.94 -9.34Q13.28 -8.12 13.28 -6.52Q13.28 -5.09 12.9 -3.87Q12.52 -2.64 11.8 -1.75Q11.09 -0.85 10.05 -0.34Q9.02 0.18 7.72 0.18Q6.48 0.18 5.61 -0.3Q4.74 -0.79 4.09 -1.65L3.98 -0.48Q3.87 0 3.39 0ZM7.67 -11.26Q6.57 -11.26 5.73 -10.76Q4.9 -10.25 4.2 -9.32L4.2 -3.1Q4.81 -2.26 5.56 -1.92Q6.3 -1.57 7.21 -1.57Q9.02 -1.57 9.98 -2.86Q10.95 -4.14 10.95 -6.52Q10.95 -7.77 10.73 -8.67Q10.5 -9.58 10.08 -10.15Q9.66 -10.73 9.06 -11Q8.45 -11.26 7.67 -11.26Z","advanceWidth":14.198599999999999,"advanceHeight":25.4,"leftBearing":1.9304,"topBearing":1.7399,"bbox":{"minX":1.9304,"minY":-0.17779999999999999,"maxX":13.2842,"maxY":18.7071}},"c":{"dPath":"M10.63 -10.58Q10.53 -10.44 10.43 -10.36Q10.33 -10.29 10.13 -10.29Q9.94 -10.29 9.72 -10.45Q9.5 -10.6 9.16 -10.79Q8.81 -10.99 8.32 -11.14Q7.84 -11.3 7.12 -11.3Q6.18 -11.3 5.46 -10.97Q4.74 -10.63 4.25 -9.99Q3.76 -9.36 3.51 -8.46Q3.26 -7.56 3.26 -6.44Q3.26 -5.27 3.53 -4.36Q3.8 -3.45 4.28 -2.84Q4.76 -2.22 5.45 -1.9Q6.15 -1.57 7.01 -1.57Q7.84 -1.57 8.37 -1.77Q8.9 -1.97 9.26 -2.21Q9.61 -2.45 9.84 -2.65Q10.07 -2.84 10.3 -2.84Q10.59 -2.84 10.73 -2.63L11.37 -1.8Q10.53 -0.77 9.27 -0.3Q8.01 0.18 6.62 0.18Q5.41 0.18 4.38 -0.27Q3.34 -0.71 2.58 -1.56Q1.82 -2.4 1.38 -3.63Q0.94 -4.86 0.94 -6.44Q0.94 -7.87 1.34 -9.09Q1.74 -10.31 2.51 -11.2Q3.28 -12.08 4.41 -12.57Q5.54 -13.07 7 -13.07Q8.34 -13.07 9.39 -12.63Q10.43 -12.19 11.23 -11.39Z","advanceWidth":11.861799999999999,"advanceHeight":25.4,"leftBearing":0.9398,"topBearing":7.378699999999999,"bbox":{"minX":0.9398,"minY":-0.17779999999999999,"maxX":11.3665,"maxY":13.068299999999999}},"d":{"dPath":"M10.91 0Q10.43 0 10.3 -0.47L10.1 -2.03Q9.27 -1.03 8.21 -0.43Q7.15 0.18 5.78 0.18Q4.67 0.18 3.77 -0.25Q2.87 -0.67 2.24 -1.5Q1.6 -2.32 1.26 -3.56Q0.91 -4.79 0.91 -6.39Q0.91 -7.81 1.3 -9.04Q1.68 -10.26 2.39 -11.16Q3.11 -12.06 4.14 -12.58Q5.17 -13.09 6.48 -13.09Q7.66 -13.09 8.5 -12.69Q9.33 -12.29 9.99 -11.57L9.99 -18.71L12.26 -18.71L12.26 0ZM6.53 -1.65Q7.63 -1.65 8.46 -2.16Q9.3 -2.67 9.99 -3.59L9.99 -9.82Q9.37 -10.66 8.63 -10.99Q7.89 -11.33 6.99 -11.33Q5.18 -11.33 4.22 -10.05Q3.25 -8.76 3.25 -6.39Q3.25 -5.13 3.47 -4.24Q3.68 -3.34 4.1 -2.76Q4.52 -2.18 5.13 -1.92Q5.74 -1.65 6.53 -1.65Z","advanceWidth":14.198599999999999,"advanceHeight":25.4,"leftBearing":0.9144,"topBearing":1.7399,"bbox":{"minX":0.9144,"minY":-0.17779999999999999,"maxX":12.2555,"maxY":18.7071}},"e":{"dPath":"M6.95 -13.07Q8.1 -13.07 9.08 -12.68Q10.06 -12.29 10.77 -11.56Q11.48 -10.83 11.88 -9.76Q12.28 -8.69 12.28 -7.32Q12.28 -6.78 12.17 -6.6Q12.05 -6.43 11.73 -6.43L3.18 -6.43Q3.2 -5.21 3.51 -4.31Q3.81 -3.4 4.34 -2.8Q4.88 -2.2 5.61 -1.9Q6.35 -1.6 7.26 -1.6Q8.12 -1.6 8.73 -1.8Q9.35 -1.99 9.79 -2.22Q10.24 -2.45 10.53 -2.65Q10.83 -2.84 11.05 -2.84Q11.33 -2.84 11.48 -2.63L12.12 -1.8Q11.7 -1.3 11.11 -0.92Q10.53 -0.55 9.86 -0.3Q9.19 -0.06 8.48 0.06Q7.77 0.18 7.07 0.18Q5.74 0.18 4.62 -0.27Q3.49 -0.72 2.67 -1.59Q1.85 -2.46 1.4 -3.75Q0.94 -5.03 0.94 -6.69Q0.94 -8.04 1.35 -9.21Q1.77 -10.38 2.54 -11.23Q3.31 -12.09 4.43 -12.58Q5.55 -13.07 6.95 -13.07ZM7 -11.4Q5.36 -11.4 4.42 -10.46Q3.48 -9.51 3.25 -7.84L10.25 -7.84Q10.25 -8.62 10.03 -9.28Q9.82 -9.93 9.4 -10.41Q8.98 -10.88 8.38 -11.14Q7.77 -11.4 7 -11.4Z","advanceWidth":13.3096,"advanceHeight":25.4,"leftBearing":0.9398,"topBearing":7.378699999999999,"bbox":{"minX":0.9398,"minY":-0.17779999999999999,"maxX":12.280899999999999,"maxY":13.068299999999999}},"f":{"dPath":"M2.36 0L2.36 -10.93L0.94 -11.1Q0.67 -11.16 0.5 -11.3Q0.33 -11.43 0.33 -11.68L0.33 -12.61L2.36 -12.61L2.36 -13.86Q2.36 -14.96 2.67 -15.82Q2.98 -16.68 3.56 -17.27Q4.14 -17.86 4.95 -18.16Q5.77 -18.47 6.78 -18.47Q7.65 -18.47 8.38 -18.21L8.33 -17.08Q8.32 -16.83 8.12 -16.78Q7.91 -16.73 7.54 -16.73L7.15 -16.73Q6.57 -16.73 6.09 -16.57Q5.61 -16.42 5.27 -16.08Q4.93 -15.74 4.74 -15.18Q4.56 -14.62 4.56 -13.79L4.56 -12.61L8.28 -12.61L8.28 -10.97L4.64 -10.97L4.64 0Z","advanceWidth":8.5598,"advanceHeight":25.4,"leftBearing":0.3302,"topBearing":1.9811999999999999,"bbox":{"minX":0.3302,"minY":0,"maxX":8.382,"maxY":18.465799999999998}},"g":{"dPath":"M6.18 -13.08Q7.02 -13.08 7.75 -12.9Q8.48 -12.71 9.08 -12.36L12.57 -12.36L12.57 -11.52Q12.57 -11.1 12.04 -10.99L10.58 -10.78Q11.01 -9.96 11.01 -8.94Q11.01 -8 10.65 -7.23Q10.29 -6.46 9.65 -5.92Q9 -5.37 8.12 -5.08Q7.24 -4.79 6.18 -4.79Q5.28 -4.79 4.48 -5Q4.08 -4.75 3.87 -4.46Q3.66 -4.17 3.66 -3.89Q3.66 -3.43 4.03 -3.19Q4.39 -2.96 5 -2.86Q5.61 -2.76 6.39 -2.73Q7.16 -2.71 7.97 -2.65Q8.78 -2.59 9.55 -2.45Q10.33 -2.31 10.93 -1.99Q11.54 -1.68 11.91 -1.12Q12.28 -0.56 12.28 0.33Q12.28 1.16 11.87 1.93Q11.46 2.71 10.68 3.31Q9.91 3.91 8.79 4.27Q7.67 4.64 6.26 4.64Q4.85 4.64 3.79 4.36Q2.73 4.08 2.03 3.61Q1.33 3.14 0.98 2.52Q0.64 1.91 0.64 1.23Q0.64 0.28 1.24 -0.39Q1.84 -1.05 2.9 -1.45Q2.35 -1.7 2.03 -2.13Q1.7 -2.55 1.7 -3.26Q1.7 -3.54 1.8 -3.84Q1.91 -4.14 2.11 -4.43Q2.32 -4.72 2.63 -4.99Q2.93 -5.26 3.34 -5.46Q2.39 -5.99 1.85 -6.88Q1.31 -7.76 1.31 -8.94Q1.31 -9.88 1.67 -10.65Q2.03 -11.42 2.68 -11.96Q3.33 -12.5 4.22 -12.79Q5.12 -13.08 6.18 -13.08ZM10.2 0.7Q10.2 0.22 9.93 -0.08Q9.66 -0.37 9.21 -0.53Q8.75 -0.69 8.15 -0.76Q7.56 -0.84 6.9 -0.87Q6.24 -0.9 5.55 -0.94Q4.86 -0.98 4.24 -1.08Q3.52 -0.74 3.07 -0.24Q2.62 0.25 2.62 0.94Q2.62 1.37 2.84 1.75Q3.06 2.12 3.52 2.39Q3.98 2.67 4.67 2.83Q5.36 2.98 6.3 2.98Q7.21 2.98 7.94 2.82Q8.66 2.65 9.16 2.35Q9.66 2.04 9.93 1.63Q10.2 1.21 10.2 0.7ZM6.18 -6.29Q6.87 -6.29 7.4 -6.48Q7.92 -6.67 8.28 -7.01Q8.64 -7.35 8.81 -7.83Q8.99 -8.31 8.99 -8.88Q8.99 -10.06 8.27 -10.76Q7.56 -11.46 6.18 -11.46Q4.83 -11.46 4.11 -10.76Q3.39 -10.06 3.39 -8.88Q3.39 -8.31 3.58 -7.83Q3.76 -7.35 4.11 -7.01Q4.47 -6.67 4.99 -6.48Q5.51 -6.29 6.18 -6.29Z","advanceWidth":12.9794,"advanceHeight":25.4,"leftBearing":0.635,"topBearing":7.366,"bbox":{"minX":0.635,"minY":-4.6354999999999995,"maxX":12.572999999999999,"maxY":13.081}},"h":{"dPath":"M1.85 0L1.85 -18.71L4.11 -18.71L4.11 -11.14Q4.94 -12.01 5.94 -12.54Q6.95 -13.07 8.25 -13.07Q9.31 -13.07 10.12 -12.72Q10.92 -12.37 11.46 -11.73Q12 -11.09 12.28 -10.19Q12.56 -9.28 12.56 -8.19L12.56 0L10.3 0L10.3 -8.19Q10.3 -9.65 9.63 -10.46Q8.97 -11.26 7.59 -11.26Q6.59 -11.26 5.72 -10.78Q4.85 -10.3 4.11 -9.47L4.11 0Z","advanceWidth":14.122399999999999,"advanceHeight":25.4,"leftBearing":1.8541999999999998,"topBearing":1.7399,"bbox":{"minX":1.8541999999999998,"minY":0,"maxX":12.5603,"maxY":18.7071}},"i":{"dPath":"M4.37 -12.87L4.37 0L2.11 0L2.11 -12.87ZM4.88 -16.9Q4.88 -16.57 4.74 -16.29Q4.61 -16 4.39 -15.78Q4.17 -15.56 3.87 -15.43Q3.58 -15.3 3.25 -15.3Q2.92 -15.3 2.64 -15.43Q2.35 -15.56 2.13 -15.78Q1.91 -16 1.78 -16.29Q1.65 -16.57 1.65 -16.9Q1.65 -17.23 1.78 -17.53Q1.91 -17.83 2.13 -18.05Q2.35 -18.28 2.64 -18.4Q2.92 -18.53 3.25 -18.53Q3.58 -18.53 3.87 -18.4Q4.17 -18.28 4.39 -18.05Q4.61 -17.83 4.74 -17.53Q4.88 -17.23 4.88 -16.9Z","advanceWidth":6.5024,"advanceHeight":25.4,"leftBearing":1.651,"topBearing":1.9177,"bbox":{"minX":1.651,"minY":0,"maxX":4.876799999999999,"maxY":18.5293}},"j":{"dPath":"M4.37 -12.87L4.37 0.95Q4.37 1.73 4.17 2.39Q3.96 3.06 3.52 3.56Q3.09 4.05 2.39 4.34Q1.7 4.62 0.74 4.62Q0.32 4.62 -0.03 4.56Q-0.37 4.5 -0.71 4.37L-0.61 3.15Q-0.58 2.98 -0.5 2.94Q-0.41 2.9 -0.22 2.9Q-0.11 2.9 0 2.9Q0.11 2.91 0.28 2.91Q1.27 2.91 1.69 2.44Q2.11 1.98 2.11 0.95L2.11 -12.87ZM4.88 -16.9Q4.88 -16.57 4.74 -16.29Q4.61 -16 4.39 -15.78Q4.17 -15.56 3.87 -15.43Q3.58 -15.3 3.25 -15.3Q2.92 -15.3 2.64 -15.43Q2.35 -15.56 2.13 -15.78Q1.91 -16 1.78 -16.29Q1.65 -16.57 1.65 -16.9Q1.65 -17.23 1.78 -17.53Q1.91 -17.83 2.13 -18.05Q2.35 -18.28 2.64 -18.4Q2.92 -18.53 3.25 -18.53Q3.58 -18.53 3.87 -18.4Q4.17 -18.28 4.39 -18.05Q4.61 -17.83 4.74 -17.53Q4.88 -17.23 4.88 -16.9Z","advanceWidth":6.4516,"advanceHeight":25.4,"leftBearing":-0.7111999999999999,"topBearing":1.9177,"bbox":{"minX":-0.7111999999999999,"minY":-4.6228,"maxX":4.876799999999999,"maxY":18.5293}},"k":{"dPath":"M4.2 -18.71L4.2 -7.7L4.79 -7.7Q5.04 -7.7 5.21 -7.77Q5.37 -7.84 5.58 -8.05L9.64 -12.41Q9.83 -12.61 10.02 -12.74Q10.21 -12.87 10.53 -12.87L12.59 -12.87L7.85 -7.82Q7.67 -7.61 7.5 -7.44Q7.33 -7.28 7.11 -7.15Q7.34 -7 7.52 -6.8Q7.71 -6.6 7.87 -6.35L12.9 0L10.87 0Q10.59 0 10.39 -0.11Q10.2 -0.22 10.02 -0.44L5.79 -5.71Q5.6 -5.98 5.41 -6.06Q5.22 -6.15 4.84 -6.15L4.2 -6.15L4.2 0L1.93 0L1.93 -18.71Z","advanceWidth":13.3096,"advanceHeight":25.4,"leftBearing":1.9304,"topBearing":1.7399,"bbox":{"minX":1.9304,"minY":0,"maxX":12.9032,"maxY":18.7071}},"l":{"dPath":"M4.37 -18.71L4.37 0L2.11 0L2.11 -18.71Z","advanceWidth":6.5024,"advanceHeight":25.4,"leftBearing":2.1082,"topBearing":1.7399,"bbox":{"minX":2.1082,"minY":0,"maxX":4.3688,"maxY":18.7071}},"m":{"dPath":"M1.85 0L1.85 -12.87L3.2 -12.87Q3.68 -12.87 3.81 -12.4L3.98 -11.07Q4.69 -11.95 5.57 -12.51Q6.45 -13.07 7.62 -13.07Q8.93 -13.07 9.73 -12.34Q10.54 -11.62 10.9 -10.39Q11.16 -11.09 11.6 -11.6Q12.04 -12.1 12.59 -12.43Q13.13 -12.76 13.75 -12.92Q14.36 -13.07 15 -13.07Q16.01 -13.07 16.81 -12.74Q17.6 -12.42 18.15 -11.8Q18.71 -11.18 19 -10.27Q19.29 -9.36 19.29 -8.19L19.29 0L17.03 0L17.03 -8.19Q17.03 -9.7 16.37 -10.48Q15.71 -11.26 14.45 -11.26Q13.89 -11.26 13.39 -11.07Q12.89 -10.87 12.51 -10.49Q12.13 -10.11 11.91 -9.53Q11.68 -8.95 11.68 -8.19L11.68 0L9.42 0L9.42 -8.19Q9.42 -9.74 8.8 -10.5Q8.18 -11.26 6.99 -11.26Q6.15 -11.26 5.43 -10.81Q4.71 -10.36 4.11 -9.59L4.11 0Z","advanceWidth":20.8534,"advanceHeight":25.4,"leftBearing":1.8541999999999998,"topBearing":7.378699999999999,"bbox":{"minX":1.8541999999999998,"minY":0,"maxX":19.2913,"maxY":13.068299999999999}},"n":{"dPath":"M1.85 0L1.85 -12.87L3.2 -12.87Q3.68 -12.87 3.81 -12.4L3.99 -11Q4.83 -11.93 5.86 -12.5Q6.9 -13.07 8.25 -13.07Q9.31 -13.07 10.12 -12.72Q10.92 -12.37 11.46 -11.73Q12 -11.09 12.28 -10.19Q12.56 -9.28 12.56 -8.19L12.56 0L10.3 0L10.3 -8.19Q10.3 -9.65 9.63 -10.46Q8.97 -11.26 7.59 -11.26Q6.59 -11.26 5.72 -10.78Q4.85 -10.3 4.11 -9.47L4.11 0Z","advanceWidth":14.122399999999999,"advanceHeight":25.4,"leftBearing":1.8541999999999998,"topBearing":7.378699999999999,"bbox":{"minX":1.8541999999999998,"minY":0,"maxX":12.5603,"maxY":13.068299999999999}},"o":{"dPath":"M7.06 -13.07Q8.47 -13.07 9.61 -12.6Q10.74 -12.13 11.54 -11.26Q12.33 -10.4 12.76 -9.18Q13.18 -7.95 13.18 -6.44Q13.18 -4.91 12.76 -3.7Q12.33 -2.48 11.54 -1.61Q10.74 -0.75 9.61 -0.29Q8.47 0.18 7.06 0.18Q5.65 0.18 4.51 -0.29Q3.38 -0.75 2.58 -1.61Q1.78 -2.48 1.35 -3.7Q0.91 -4.91 0.91 -6.44Q0.91 -7.95 1.35 -9.18Q1.78 -10.4 2.58 -11.26Q3.38 -12.13 4.51 -12.6Q5.65 -13.07 7.06 -13.07ZM7.06 -1.59Q8.97 -1.59 9.91 -2.86Q10.85 -4.14 10.85 -6.43Q10.85 -8.72 9.91 -10.01Q8.97 -11.29 7.06 -11.29Q6.1 -11.29 5.38 -10.96Q4.67 -10.63 4.2 -10.01Q3.72 -9.39 3.49 -8.48Q3.25 -7.57 3.25 -6.43Q3.25 -5.28 3.49 -4.38Q3.72 -3.48 4.2 -2.86Q4.67 -2.25 5.38 -1.92Q6.1 -1.59 7.06 -1.59Z","advanceWidth":14.122399999999999,"advanceHeight":25.4,"leftBearing":0.9144,"topBearing":7.378699999999999,"bbox":{"minX":0.9144,"minY":-0.17779999999999999,"maxX":13.182599999999999,"maxY":13.068299999999999}},"p":{"dPath":"M1.85 4.36L1.85 -12.87L3.2 -12.87Q3.68 -12.87 3.81 -12.4L4 -10.87Q4.83 -11.87 5.89 -12.48Q6.95 -13.09 8.33 -13.09Q9.44 -13.09 10.34 -12.67Q11.24 -12.24 11.87 -11.41Q12.51 -10.58 12.85 -9.35Q13.2 -8.12 13.2 -6.52Q13.2 -5.09 12.81 -3.87Q12.43 -2.64 11.72 -1.75Q11.01 -0.85 9.98 -0.34Q8.94 0.18 7.65 0.18Q6.45 0.18 5.61 -0.22Q4.76 -0.61 4.11 -1.33L4.11 4.36ZM7.58 -11.26Q6.48 -11.26 5.65 -10.76Q4.81 -10.25 4.11 -9.32L4.11 -3.1Q4.74 -2.26 5.48 -1.92Q6.22 -1.57 7.14 -1.57Q8.93 -1.57 9.89 -2.86Q10.86 -4.14 10.86 -6.52Q10.86 -7.77 10.64 -8.67Q10.41 -9.58 9.99 -10.15Q9.58 -10.73 8.97 -11Q8.36 -11.26 7.58 -11.26Z","advanceWidth":14.0208,"advanceHeight":25.4,"leftBearing":1.8541999999999998,"topBearing":7.3533,"bbox":{"minX":1.8541999999999998,"minY":-4.3561,"maxX":13.1953,"maxY":13.0937}},"q":{"dPath":"M12.26 -12.87L12.26 4.36L9.99 4.36L9.99 -1.9Q9.18 -0.97 8.15 -0.39Q7.11 0.18 5.78 0.18Q4.67 0.18 3.77 -0.25Q2.87 -0.67 2.24 -1.5Q1.6 -2.32 1.26 -3.56Q0.91 -4.79 0.91 -6.39Q0.91 -7.81 1.3 -9.04Q1.68 -10.26 2.39 -11.16Q3.11 -12.06 4.14 -12.58Q5.17 -13.09 6.48 -13.09Q7.72 -13.09 8.59 -12.65Q9.46 -12.2 10.15 -11.39L10.3 -12.4Q10.43 -12.87 10.91 -12.87ZM6.53 -1.65Q7.63 -1.65 8.46 -2.16Q9.3 -2.67 9.99 -3.59L9.99 -9.82Q9.39 -10.63 8.64 -10.98Q7.89 -11.33 6.99 -11.33Q5.18 -11.33 4.22 -10.05Q3.25 -8.76 3.25 -6.39Q3.25 -5.13 3.47 -4.24Q3.68 -3.34 4.1 -2.76Q4.52 -2.18 5.13 -1.92Q5.74 -1.65 6.53 -1.65Z","advanceWidth":14.198599999999999,"advanceHeight":25.4,"leftBearing":0.9144,"topBearing":7.3533,"bbox":{"minX":0.9144,"minY":-4.3561,"maxX":12.2555,"maxY":13.0937}},"r":{"dPath":"M1.85 0L1.85 -12.87L3.15 -12.87Q3.52 -12.87 3.66 -12.73Q3.8 -12.59 3.85 -12.24L4 -10.24Q4.66 -11.58 5.63 -12.34Q6.6 -13.09 7.91 -13.09Q8.45 -13.09 8.88 -12.97Q9.31 -12.85 9.68 -12.64L9.39 -10.95Q9.3 -10.63 8.99 -10.63Q8.81 -10.63 8.45 -10.75Q8.08 -10.87 7.42 -10.87Q6.24 -10.87 5.44 -10.19Q4.65 -9.5 4.11 -8.19L4.11 0Z","advanceWidth":10.2362,"advanceHeight":25.4,"leftBearing":1.8541999999999998,"topBearing":7.3533,"bbox":{"minX":1.8541999999999998,"minY":0,"maxX":9.6774,"maxY":13.0937}},"s":{"dPath":"M9.22 -10.74Q9.07 -10.46 8.75 -10.46Q8.56 -10.46 8.32 -10.6Q8.08 -10.74 7.73 -10.92Q7.38 -11.09 6.9 -11.23Q6.41 -11.38 5.75 -11.38Q5.18 -11.38 4.72 -11.23Q4.27 -11.09 3.94 -10.83Q3.62 -10.58 3.45 -10.24Q3.28 -9.91 3.28 -9.51Q3.28 -9.02 3.56 -8.69Q3.85 -8.36 4.32 -8.12Q4.79 -7.87 5.38 -7.69Q5.98 -7.51 6.61 -7.3Q7.24 -7.09 7.84 -6.83Q8.43 -6.58 8.9 -6.2Q9.37 -5.82 9.66 -5.26Q9.94 -4.71 9.94 -3.94Q9.94 -3.05 9.63 -2.29Q9.31 -1.54 8.69 -0.98Q8.06 -0.43 7.16 -0.11Q6.26 0.2 5.08 0.2Q3.73 0.2 2.64 -0.23Q1.55 -0.67 0.79 -1.36L1.32 -2.22Q1.42 -2.39 1.56 -2.48Q1.7 -2.57 1.93 -2.57Q2.16 -2.57 2.41 -2.39Q2.67 -2.21 3.03 -1.99Q3.39 -1.78 3.91 -1.6Q4.42 -1.42 5.19 -1.42Q5.85 -1.42 6.35 -1.59Q6.85 -1.77 7.18 -2.06Q7.51 -2.35 7.66 -2.73Q7.82 -3.11 7.82 -3.54Q7.82 -4.08 7.54 -4.43Q7.25 -4.78 6.78 -5.02Q6.31 -5.27 5.71 -5.45Q5.11 -5.64 4.48 -5.84Q3.85 -6.05 3.24 -6.31Q2.64 -6.57 2.17 -6.96Q1.7 -7.35 1.42 -7.93Q1.13 -8.51 1.13 -9.33Q1.13 -10.07 1.44 -10.75Q1.74 -11.43 2.32 -11.94Q2.91 -12.46 3.76 -12.76Q4.61 -13.07 5.7 -13.07Q6.97 -13.07 7.98 -12.67Q8.99 -12.27 9.73 -11.57Z","advanceWidth":11.0236,"advanceHeight":25.4,"leftBearing":0.7874,"topBearing":7.378699999999999,"bbox":{"minX":0.7874,"minY":-0.2032,"maxX":9.944099999999999,"maxY":13.068299999999999}},"t":{"dPath":"M5.75 0.2Q4.23 0.2 3.41 -0.65Q2.59 -1.5 2.59 -3.1L2.59 -10.97L1.04 -10.97Q0.84 -10.97 0.7 -11.09Q0.56 -11.21 0.56 -11.47L0.56 -12.37L2.67 -12.64L3.19 -16.61Q3.21 -16.8 3.35 -16.92Q3.49 -17.04 3.71 -17.04L4.85 -17.04L4.85 -12.61L8.53 -12.61L8.53 -10.97L4.85 -10.97L4.85 -3.25Q4.85 -2.44 5.25 -2.04Q5.64 -1.65 6.26 -1.65Q6.62 -1.65 6.88 -1.75Q7.14 -1.84 7.33 -1.96Q7.52 -2.07 7.65 -2.17Q7.79 -2.26 7.89 -2.26Q8.06 -2.26 8.2 -2.04L8.86 -0.97Q8.28 -0.42 7.45 -0.11Q6.63 0.2 5.75 0.2Z","advanceWidth":9.4742,"advanceHeight":25.4,"leftBearing":0.5588,"topBearing":3.4036,"bbox":{"minX":0.5588,"minY":-0.2032,"maxX":8.8646,"maxY":17.0434}},"u":{"dPath":"M3.81 -12.87L3.81 -4.66Q3.81 -3.2 4.48 -2.4Q5.16 -1.6 6.52 -1.6Q7.51 -1.6 8.38 -2.07Q9.26 -2.54 9.99 -3.38L9.99 -12.87L12.26 -12.87L12.26 0L10.91 0Q10.43 0 10.3 -0.47L10.12 -1.85Q9.28 -0.93 8.24 -0.36Q7.2 0.2 5.85 0.2Q4.8 0.2 3.99 -0.15Q3.19 -0.5 2.64 -1.13Q2.1 -1.77 1.82 -2.67Q1.55 -3.57 1.55 -4.66L1.55 -12.87Z","advanceWidth":14.122399999999999,"advanceHeight":25.4,"leftBearing":1.5493999999999999,"topBearing":7.5819,"bbox":{"minX":1.5493999999999999,"minY":-0.2032,"maxX":12.2555,"maxY":12.8651}},"v":{"dPath":"M0.23 -12.87L2.08 -12.87Q2.35 -12.87 2.53 -12.73Q2.71 -12.59 2.78 -12.4L6.05 -4.11Q6.22 -3.66 6.32 -3.2Q6.43 -2.74 6.52 -2.3Q6.62 -2.74 6.73 -3.2Q6.85 -3.66 7.02 -4.11L10.33 -12.4Q10.4 -12.6 10.57 -12.73Q10.74 -12.87 11 -12.87L12.76 -12.87L7.52 0L5.47 0Z","advanceWidth":13.0048,"advanceHeight":25.4,"leftBearing":0.2286,"topBearing":7.5819,"bbox":{"minX":0.2286,"minY":0,"maxX":12.763499999999999,"maxY":12.8651}},"w":{"dPath":"M0.18 -12.87L1.96 -12.87Q2.24 -12.87 2.41 -12.73Q2.59 -12.59 2.65 -12.4L5.12 -4.11Q5.22 -3.66 5.31 -3.23Q5.4 -2.81 5.46 -2.37Q5.56 -2.81 5.69 -3.23Q5.82 -3.66 5.96 -4.11L8.67 -12.45Q8.74 -12.64 8.9 -12.76Q9.06 -12.89 9.3 -12.89L10.27 -12.89Q10.53 -12.89 10.69 -12.76Q10.86 -12.64 10.92 -12.45L13.58 -4.11Q13.72 -3.67 13.82 -3.24Q13.93 -2.81 14.03 -2.39Q14.1 -2.81 14.2 -3.26Q14.3 -3.72 14.41 -4.11L16.93 -12.4Q16.99 -12.6 17.17 -12.73Q17.35 -12.87 17.59 -12.87L19.29 -12.87L15.13 0L13.34 0Q13 0 12.88 -0.43L10.03 -9.16Q9.93 -9.45 9.87 -9.75Q9.8 -10.05 9.74 -10.34Q9.68 -10.05 9.61 -9.74Q9.55 -9.44 9.45 -9.14L6.57 -0.43Q6.43 0 6.05 0L4.34 0Z","advanceWidth":19.4564,"advanceHeight":25.4,"leftBearing":0.17779999999999999,"topBearing":7.5565,"bbox":{"minX":0.17779999999999999,"minY":0,"maxX":19.2913,"maxY":12.8905}},"x":{"dPath":"M4.86 -6.59L0.53 -12.87L2.71 -12.87Q2.98 -12.87 3.11 -12.78Q3.24 -12.69 3.34 -12.52L6.49 -7.7Q6.6 -8.05 6.82 -8.41L9.59 -12.47Q9.72 -12.65 9.84 -12.76Q9.97 -12.87 10.16 -12.87L12.24 -12.87L7.91 -6.72L12.42 0L10.25 0Q9.97 0 9.81 -0.15Q9.65 -0.29 9.55 -0.47L6.31 -5.51Q6.22 -5.14 6.05 -4.85L3.05 -0.47Q2.92 -0.29 2.77 -0.15Q2.63 0 2.37 0L0.36 0Z","advanceWidth":12.801599999999999,"advanceHeight":25.4,"leftBearing":0.35559999999999997,"topBearing":7.5819,"bbox":{"minX":0.35559999999999997,"minY":0,"maxX":12.4206,"maxY":12.8651}},"y":{"dPath":"M5.63 3.8Q5.51 4.05 5.34 4.2Q5.17 4.36 4.81 4.36L3.14 4.36L5.49 -0.75L0.18 -12.87L2.13 -12.87Q2.43 -12.87 2.59 -12.72Q2.76 -12.57 2.83 -12.4L6.27 -4.29Q6.39 -4.01 6.47 -3.73Q6.55 -3.45 6.62 -3.16Q6.71 -3.45 6.79 -3.73Q6.88 -4.01 7 -4.31L10.34 -12.4Q10.41 -12.6 10.6 -12.73Q10.78 -12.87 11 -12.87L12.8 -12.87Z","advanceWidth":13.0048,"advanceHeight":25.4,"leftBearing":0.17779999999999999,"topBearing":7.5819,"bbox":{"minX":0.17779999999999999,"minY":-4.3561,"maxX":12.801599999999999,"maxY":12.8651}},"z":{"dPath":"M10.83 -11.9Q10.83 -11.66 10.74 -11.44Q10.66 -11.21 10.52 -11.04L3.56 -1.77L10.58 -1.77L10.58 0L0.89 0L0.89 -0.94Q0.89 -1.1 0.97 -1.33Q1.05 -1.55 1.21 -1.75L8.2 -11.09L1.28 -11.09L1.28 -12.87L10.83 -12.87Z","advanceWidth":11.7348,"advanceHeight":25.4,"leftBearing":0.889,"topBearing":7.5819,"bbox":{"minX":0.889,"minY":0,"maxX":10.8331,"maxY":12.8651}},"A":{"dPath":"M17.18 0L15.28 0Q14.95 0 14.74 -0.17Q14.54 -0.33 14.44 -0.58L12.74 -4.98L4.57 -4.98L2.87 -0.58Q2.78 -0.36 2.57 -0.18Q2.35 0 2.03 0L0.13 0L7.4 -18.2L9.91 -18.2ZM5.26 -6.76L12.05 -6.76L9.19 -14.16Q8.92 -14.85 8.65 -15.87Q8.51 -15.35 8.38 -14.92Q8.24 -14.48 8.12 -14.15Z","advanceWidth":17.272,"advanceHeight":25.4,"leftBearing":0.127,"topBearing":2.2479,"bbox":{"minX":0.127,"minY":0,"maxX":17.1831,"maxY":18.199099999999998}},"B":{"dPath":"M2.21 0L2.21 -18.2L8.01 -18.2Q9.69 -18.2 10.9 -17.87Q12.12 -17.54 12.9 -16.93Q13.68 -16.32 14.05 -15.44Q14.43 -14.55 14.43 -13.45Q14.43 -12.78 14.22 -12.15Q14.01 -11.53 13.58 -11Q13.16 -10.46 12.52 -10.05Q11.87 -9.63 11.01 -9.36Q13 -8.97 14.02 -7.92Q15.04 -6.88 15.04 -5.18Q15.04 -4.03 14.61 -3.07Q14.19 -2.12 13.37 -1.44Q12.55 -0.75 11.36 -0.37Q10.17 0 8.65 0ZM4.67 -8.29L4.67 -1.96L8.61 -1.96Q9.66 -1.96 10.42 -2.2Q11.18 -2.44 11.66 -2.88Q12.15 -3.31 12.38 -3.92Q12.61 -4.52 12.61 -5.25Q12.61 -6.65 11.61 -7.47Q10.62 -8.29 8.6 -8.29ZM4.67 -10.05L7.92 -10.05Q8.97 -10.05 9.73 -10.27Q10.49 -10.5 10.99 -10.91Q11.49 -11.32 11.73 -11.89Q11.98 -12.47 11.98 -13.16Q11.98 -14.76 11.01 -15.51Q10.05 -16.26 8.01 -16.26L4.67 -16.26Z","advanceWidth":16.433799999999998,"advanceHeight":25.4,"leftBearing":2.2098,"topBearing":2.2479,"bbox":{"minX":2.2098,"minY":0,"maxX":15.0368,"maxY":18.199099999999998}},"C":{"dPath":"M15.04 -3.76Q15.24 -3.76 15.41 -3.59L16.37 -2.54Q15.25 -1.24 13.66 -0.52Q12.07 0.2 9.82 0.2Q7.85 0.2 6.25 -0.48Q4.65 -1.16 3.52 -2.38Q2.39 -3.61 1.77 -5.32Q1.14 -7.04 1.14 -9.09Q1.14 -11.15 1.81 -12.87Q2.48 -14.58 3.68 -15.81Q4.89 -17.04 6.57 -17.72Q8.25 -18.4 10.29 -18.4Q12.29 -18.4 13.75 -17.78Q15.2 -17.16 16.33 -16.09L15.53 -14.96Q15.44 -14.83 15.33 -14.75Q15.21 -14.67 15 -14.67Q14.83 -14.67 14.65 -14.79Q14.47 -14.91 14.21 -15.09Q13.96 -15.27 13.61 -15.47Q13.27 -15.67 12.8 -15.85Q12.33 -16.03 11.71 -16.15Q11.09 -16.27 10.27 -16.27Q8.81 -16.27 7.6 -15.77Q6.39 -15.27 5.51 -14.34Q4.64 -13.41 4.15 -12.08Q3.66 -10.74 3.66 -9.09Q3.66 -7.39 4.15 -6.06Q4.64 -4.72 5.48 -3.8Q6.32 -2.88 7.48 -2.4Q8.64 -1.92 9.97 -1.92Q10.78 -1.92 11.43 -2.01Q12.08 -2.11 12.63 -2.31Q13.18 -2.51 13.66 -2.83Q14.14 -3.14 14.62 -3.57Q14.83 -3.76 15.04 -3.76Z","advanceWidth":17.399,"advanceHeight":25.4,"leftBearing":1.143,"topBearing":2.0446999999999997,"bbox":{"minX":1.143,"minY":-0.2032,"maxX":16.3703,"maxY":18.4023}},"D":{"dPath":"M17.98 -9.09Q17.98 -7.05 17.34 -5.37Q16.69 -3.7 15.51 -2.5Q14.33 -1.31 12.67 -0.65Q11.02 0 9.02 0L2.21 0L2.21 -18.2L9.02 -18.2Q11.02 -18.2 12.67 -17.55Q14.33 -16.89 15.51 -15.69Q16.69 -14.49 17.34 -12.81Q17.98 -11.14 17.98 -9.09ZM15.46 -9.09Q15.46 -10.77 15 -12.09Q14.54 -13.41 13.7 -14.33Q12.87 -15.24 11.67 -15.72Q10.48 -16.21 9.02 -16.21L4.69 -16.21L4.69 -1.99L9.02 -1.99Q10.48 -1.99 11.67 -2.48Q12.87 -2.96 13.7 -3.87Q14.54 -4.78 15 -6.1Q15.46 -7.42 15.46 -9.09Z","advanceWidth":19.1262,"advanceHeight":25.4,"leftBearing":2.2098,"topBearing":2.2479,"bbox":{"minX":2.2098,"minY":0,"maxX":17.9832,"maxY":18.199099999999998}},"E":{"dPath":"M13.42 -18.2L13.42 -16.19L4.69 -16.19L4.69 -10.15L11.76 -10.15L11.76 -8.22L4.69 -8.22L4.69 -2.01L13.42 -2.01L13.42 0L2.21 0L2.21 -18.2Z","advanceWidth":14.757399999999999,"advanceHeight":25.4,"leftBearing":2.2098,"topBearing":2.2479,"bbox":{"minX":2.2098,"minY":0,"maxX":13.4239,"maxY":18.199099999999998}},"F":{"dPath":"M13.42 -18.2L13.42 -16.19L4.69 -16.19L4.69 -9.83L12.15 -9.83L12.15 -7.82L4.69 -7.82L4.69 0L2.21 0L2.21 -18.2Z","advanceWidth":14.3764,"advanceHeight":25.4,"leftBearing":2.2098,"topBearing":2.2479,"bbox":{"minX":2.2098,"minY":0,"maxX":13.4239,"maxY":18.199099999999998}},"G":{"dPath":"M10.33 -1.79Q11.06 -1.79 11.68 -1.86Q12.29 -1.93 12.84 -2.07Q13.39 -2.21 13.87 -2.41Q14.35 -2.6 14.83 -2.86L14.83 -6.87L12.01 -6.87Q11.77 -6.87 11.63 -7.01Q11.48 -7.15 11.48 -7.35L11.48 -8.75L17.07 -8.75L17.07 -1.77Q16.38 -1.27 15.64 -0.9Q14.9 -0.53 14.05 -0.29Q13.21 -0.04 12.24 0.08Q11.28 0.2 10.15 0.2Q8.17 0.2 6.52 -0.48Q4.86 -1.16 3.67 -2.38Q2.48 -3.61 1.81 -5.32Q1.14 -7.04 1.14 -9.09Q1.14 -11.18 1.8 -12.89Q2.45 -14.6 3.66 -15.83Q4.88 -17.06 6.6 -17.73Q8.32 -18.4 10.45 -18.4Q11.53 -18.4 12.46 -18.24Q13.39 -18.08 14.18 -17.79Q14.97 -17.49 15.65 -17.06Q16.32 -16.64 16.9 -16.1L16.21 -14.99Q15.99 -14.64 15.65 -14.64Q15.44 -14.64 15.2 -14.78Q14.88 -14.96 14.49 -15.21Q14.1 -15.47 13.53 -15.7Q12.97 -15.94 12.2 -16.1Q11.43 -16.27 10.38 -16.27Q8.84 -16.27 7.59 -15.77Q6.35 -15.27 5.47 -14.33Q4.6 -13.4 4.13 -12.07Q3.66 -10.74 3.66 -9.09Q3.66 -7.37 4.15 -6.01Q4.64 -4.66 5.52 -3.72Q6.41 -2.78 7.63 -2.29Q8.85 -1.79 10.33 -1.79Z","advanceWidth":18.6436,"advanceHeight":25.4,"leftBearing":1.143,"topBearing":2.0446999999999997,"bbox":{"minX":1.143,"minY":-0.2032,"maxX":17.0688,"maxY":18.4023}},"H":{"dPath":"M16.97 0L14.49 0L14.49 -8.28L4.69 -8.28L4.69 0L2.21 0L2.21 -18.2L4.69 -18.2L4.69 -10.08L14.49 -10.08L14.49 -18.2L16.97 -18.2Z","advanceWidth":19.2024,"advanceHeight":25.4,"leftBearing":2.2098,"topBearing":2.2479,"bbox":{"minX":2.2098,"minY":0,"maxX":16.9672,"maxY":18.199099999999998}},"I":{"dPath":"M5.13 0L2.67 0L2.67 -18.2L5.13 -18.2Z","advanceWidth":7.7978,"advanceHeight":25.4,"leftBearing":2.667,"topBearing":2.2479,"bbox":{"minX":2.667,"minY":0,"maxX":5.1308,"maxY":18.199099999999998}},"J":{"dPath":"M9.06 -6.29Q9.06 -4.76 8.68 -3.56Q8.31 -2.35 7.58 -1.52Q6.85 -0.69 5.78 -0.24Q4.71 0.2 3.33 0.2Q2.1 0.2 0.76 -0.15Q0.79 -0.52 0.83 -0.88Q0.86 -1.24 0.9 -1.6Q0.93 -1.82 1.06 -1.95Q1.19 -2.08 1.46 -2.08Q1.69 -2.08 2.07 -1.97Q2.45 -1.85 3.09 -1.85Q3.92 -1.85 4.58 -2.11Q5.23 -2.36 5.68 -2.9Q6.13 -3.43 6.37 -4.26Q6.6 -5.09 6.6 -6.24L6.6 -18.2L9.06 -18.2Z","advanceWidth":11.2776,"advanceHeight":25.4,"leftBearing":0.762,"topBearing":2.2479,"bbox":{"minX":0.762,"minY":-0.2032,"maxX":9.0551,"maxY":18.199099999999998}},"K":{"dPath":"M4.91 -10.22L5.84 -10.22Q6.32 -10.22 6.61 -10.34Q6.9 -10.46 7.15 -10.76L13.21 -17.61Q13.49 -17.93 13.75 -18.07Q14.01 -18.2 14.41 -18.2L16.51 -18.2L9.58 -10.36Q9.31 -10.07 9.07 -9.87Q8.84 -9.66 8.57 -9.54Q8.93 -9.42 9.19 -9.19Q9.46 -8.97 9.75 -8.62L16.99 0L14.86 0Q14.62 0 14.45 -0.04Q14.29 -0.08 14.17 -0.14Q14.05 -0.2 13.94 -0.3Q13.84 -0.41 13.74 -0.52L7.45 -7.75Q7.32 -7.9 7.19 -8.01Q7.07 -8.12 6.92 -8.19Q6.76 -8.27 6.55 -8.3Q6.34 -8.33 6.03 -8.33L4.91 -8.33L4.91 0L2.46 0L2.46 -18.2L4.91 -18.2Z","advanceWidth":17.2974,"advanceHeight":25.4,"leftBearing":2.4638,"topBearing":2.2479,"bbox":{"minX":2.4638,"minY":0,"maxX":16.9926,"maxY":18.199099999999998}},"L":{"dPath":"M4.67 -2.07L12.55 -2.07L12.55 0L2.21 0L2.21 -18.2L4.67 -18.2Z","advanceWidth":13.0556,"advanceHeight":25.4,"leftBearing":2.2098,"topBearing":2.2479,"bbox":{"minX":2.2098,"minY":0,"maxX":12.5476,"maxY":18.199099999999998}},"M":{"dPath":"M11.16 -6.58Q11.34 -6.27 11.47 -5.94Q11.61 -5.6 11.73 -5.26Q11.86 -5.61 12 -5.94Q12.14 -6.26 12.32 -6.59L18.48 -17.78Q18.64 -18.07 18.82 -18.14Q19 -18.2 19.33 -18.2L21.15 -18.2L21.15 0L18.99 0L18.99 -13.37Q18.99 -13.64 19 -13.94Q19.01 -14.25 19.04 -14.57L12.8 -3.19Q12.48 -2.62 11.91 -2.62L11.56 -2.62Q10.99 -2.62 10.67 -3.19L4.29 -14.6Q4.33 -14.27 4.35 -13.96Q4.37 -13.64 4.37 -13.37L4.37 0L2.21 0L2.21 -18.2L4.03 -18.2Q4.36 -18.2 4.53 -18.14Q4.71 -18.07 4.88 -17.78L11.16 -6.58Z","advanceWidth":23.368,"advanceHeight":25.4,"leftBearing":2.2098,"topBearing":2.2479,"bbox":{"minX":2.2098,"minY":0,"maxX":21.1455,"maxY":18.199099999999998}},"O":{"dPath":"M19.11 -9.09Q19.11 -7.05 18.47 -5.34Q17.82 -3.63 16.64 -2.4Q15.46 -1.17 13.8 -0.49Q12.14 0.19 10.13 0.19Q8.13 0.19 6.48 -0.49Q4.83 -1.17 3.64 -2.4Q2.46 -3.63 1.82 -5.34Q1.17 -7.05 1.17 -9.09Q1.17 -11.14 1.82 -12.85Q2.46 -14.55 3.64 -15.79Q4.83 -17.03 6.48 -17.72Q8.13 -18.4 10.13 -18.4Q12.14 -18.4 13.8 -17.72Q15.46 -17.03 16.64 -15.79Q17.82 -14.55 18.47 -12.85Q19.11 -11.14 19.11 -9.09ZM16.59 -9.09Q16.59 -10.77 16.13 -12.1Q15.67 -13.44 14.83 -14.36Q14 -15.28 12.8 -15.77Q11.61 -16.27 10.13 -16.27Q8.67 -16.27 7.48 -15.77Q6.29 -15.28 5.44 -14.36Q4.6 -13.44 4.14 -12.1Q3.68 -10.77 3.68 -9.09Q3.68 -7.42 4.14 -6.09Q4.6 -4.76 5.44 -3.84Q6.29 -2.92 7.48 -2.43Q8.67 -1.94 10.13 -1.94Q11.61 -1.94 12.8 -2.43Q14 -2.92 14.83 -3.84Q15.67 -4.76 16.13 -6.09Q16.59 -7.42 16.59 -9.09Z","advanceWidth":20.269199999999998,"advanceHeight":25.4,"leftBearing":1.1683999999999999,"topBearing":2.0446999999999997,"bbox":{"minX":1.1683999999999999,"minY":-0.1905,"maxX":19.1135,"maxY":18.4023}},"N":{"dPath":"M3.48 -18.2Q3.81 -18.2 3.97 -18.12Q4.13 -18.03 4.33 -17.78L14.87 -4.06Q14.83 -4.39 14.82 -4.71Q14.81 -5.02 14.81 -5.31L14.81 -18.2L16.97 -18.2L16.97 0L15.72 0Q15.43 0 15.23 -0.1Q15.04 -0.2 14.85 -0.44L4.32 -14.15Q4.34 -13.83 4.36 -13.53Q4.37 -13.22 4.37 -12.97L4.37 0L2.21 0L2.21 -18.2L3.48 -18.2Z","advanceWidth":19.2024,"advanceHeight":25.4,"leftBearing":2.2098,"topBearing":2.2479,"bbox":{"minX":2.2098,"minY":0,"maxX":16.9672,"maxY":18.199099999999998}},"P":{"dPath":"M4.91 -6.81L4.91 0L2.46 0L2.46 -18.2L7.84 -18.2Q9.56 -18.2 10.84 -17.8Q12.12 -17.4 12.95 -16.66Q13.79 -15.93 14.2 -14.88Q14.62 -13.84 14.62 -12.56Q14.62 -11.29 14.17 -10.24Q13.73 -9.18 12.87 -8.42Q12.01 -7.66 10.74 -7.23Q9.47 -6.81 7.84 -6.81ZM4.91 -8.76L7.84 -8.76Q8.89 -8.76 9.7 -9.04Q10.5 -9.32 11.05 -9.82Q11.6 -10.33 11.87 -11.02Q12.15 -11.72 12.15 -12.56Q12.15 -14.3 11.08 -15.28Q10.01 -16.26 7.84 -16.26L4.91 -16.26Z","advanceWidth":15.5194,"advanceHeight":25.4,"leftBearing":2.4638,"topBearing":2.2479,"bbox":{"minX":2.4638,"minY":0,"maxX":14.6177,"maxY":18.199099999999998}},"Q":{"dPath":"M19.11 -9.09Q19.11 -7.81 18.85 -6.65Q18.59 -5.5 18.1 -4.5Q17.6 -3.51 16.89 -2.69Q16.18 -1.88 15.29 -1.28L19.96 3.76L17.93 3.76Q17.48 3.76 17.12 3.63Q16.76 3.51 16.47 3.19L13.27 -0.29Q12.55 -0.06 11.77 0.06Q10.99 0.19 10.13 0.19Q8.13 0.19 6.48 -0.49Q4.83 -1.17 3.64 -2.4Q2.46 -3.63 1.82 -5.34Q1.17 -7.05 1.17 -9.09Q1.17 -11.14 1.82 -12.85Q2.46 -14.55 3.64 -15.79Q4.83 -17.03 6.48 -17.72Q8.13 -18.4 10.13 -18.4Q12.14 -18.4 13.8 -17.72Q15.46 -17.03 16.64 -15.79Q17.82 -14.55 18.47 -12.85Q19.11 -11.14 19.11 -9.09ZM16.59 -9.09Q16.59 -10.77 16.13 -12.1Q15.67 -13.44 14.83 -14.36Q14 -15.28 12.8 -15.77Q11.61 -16.27 10.13 -16.27Q8.67 -16.27 7.48 -15.77Q6.29 -15.28 5.44 -14.36Q4.6 -13.44 4.14 -12.1Q3.68 -10.77 3.68 -9.09Q3.68 -7.42 4.14 -6.09Q4.6 -4.76 5.44 -3.84Q6.29 -2.92 7.48 -2.43Q8.67 -1.94 10.13 -1.94Q11.61 -1.94 12.8 -2.43Q14 -2.92 14.83 -3.84Q15.67 -4.76 16.13 -6.09Q16.59 -7.42 16.59 -9.09Z","advanceWidth":20.269199999999998,"advanceHeight":25.4,"leftBearing":1.1683999999999999,"topBearing":2.0446999999999997,"bbox":{"minX":1.1683999999999999,"minY":-3.7592,"maxX":19.964399999999998,"maxY":18.4023}},"R":{"dPath":"M4.91 -7.59L4.91 0L2.46 0L2.46 -18.2L7.61 -18.2Q9.33 -18.2 10.59 -17.85Q11.85 -17.5 12.67 -16.84Q13.49 -16.18 13.88 -15.25Q14.27 -14.31 14.27 -13.16Q14.27 -12.19 13.97 -11.35Q13.67 -10.52 13.09 -9.85Q12.51 -9.18 11.68 -8.71Q10.85 -8.24 9.79 -8Q10.25 -7.73 10.6 -7.23L15.91 0L13.73 0Q13.06 0 12.74 -0.52L8.01 -7.02Q7.8 -7.33 7.54 -7.46Q7.29 -7.59 6.78 -7.59ZM4.91 -9.39L7.49 -9.39Q8.57 -9.39 9.39 -9.65Q10.21 -9.91 10.76 -10.38Q11.32 -10.86 11.6 -11.52Q11.87 -12.18 11.87 -12.98Q11.87 -14.6 10.8 -15.43Q9.73 -16.26 7.61 -16.26L4.91 -16.26Z","advanceWidth":16.357599999999998,"advanceHeight":25.4,"leftBearing":2.4638,"topBearing":2.2479,"bbox":{"minX":2.4638,"minY":0,"maxX":15.9131,"maxY":18.199099999999998}},"S":{"dPath":"M11.53 -15.35Q11.42 -15.16 11.29 -15.07Q11.16 -14.97 10.96 -14.97Q10.74 -14.97 10.46 -15.19Q10.17 -15.41 9.73 -15.67Q9.3 -15.93 8.68 -16.14Q8.06 -16.36 7.19 -16.36Q6.36 -16.36 5.73 -16.14Q5.09 -15.91 4.67 -15.53Q4.24 -15.15 4.03 -14.64Q3.81 -14.12 3.81 -13.53Q3.81 -12.76 4.18 -12.26Q4.56 -11.76 5.18 -11.4Q5.79 -11.05 6.57 -10.79Q7.35 -10.53 8.17 -10.25Q8.99 -9.97 9.77 -9.62Q10.55 -9.27 11.17 -8.74Q11.79 -8.2 12.16 -7.43Q12.53 -6.65 12.53 -5.52Q12.53 -4.33 12.13 -3.28Q11.72 -2.24 10.94 -1.46Q10.16 -0.69 9.02 -0.24Q7.89 0.2 6.44 0.2Q4.67 0.2 3.22 -0.44Q1.77 -1.08 0.74 -2.17L1.45 -3.34Q1.55 -3.48 1.7 -3.58Q1.84 -3.67 2.02 -3.67Q2.29 -3.67 2.63 -3.38Q2.97 -3.1 3.49 -2.76Q4 -2.41 4.73 -2.13Q5.46 -1.84 6.52 -1.84Q7.39 -1.84 8.08 -2.08Q8.76 -2.32 9.24 -2.76Q9.72 -3.2 9.97 -3.81Q10.22 -4.42 10.22 -5.17Q10.22 -5.99 9.85 -6.52Q9.47 -7.05 8.86 -7.4Q8.25 -7.76 7.47 -8.01Q6.69 -8.25 5.87 -8.52Q5.05 -8.78 4.27 -9.12Q3.49 -9.46 2.88 -10.01Q2.27 -10.55 1.9 -11.37Q1.52 -12.19 1.52 -13.4Q1.52 -14.36 1.9 -15.27Q2.27 -16.17 2.98 -16.87Q3.7 -17.56 4.74 -17.98Q5.79 -18.4 7.15 -18.4Q8.67 -18.4 9.93 -17.92Q11.19 -17.44 12.13 -16.52Z","advanceWidth":13.462,"advanceHeight":25.4,"leftBearing":0.7365999999999999,"topBearing":2.0446999999999997,"bbox":{"minX":0.7365999999999999,"minY":-0.2032,"maxX":12.5349,"maxY":18.4023}},"T":{"dPath":"M14.6 -18.2L14.6 -16.13L8.72 -16.13L8.72 0L6.26 0L6.26 -16.13L0.36 -16.13L0.36 -18.2Z","advanceWidth":14.985999999999999,"advanceHeight":25.4,"leftBearing":0.35559999999999997,"topBearing":2.2479,"bbox":{"minX":0.35559999999999997,"minY":0,"maxX":14.604999999999999,"maxY":18.199099999999998}},"U":{"dPath":"M9.28 -1.96Q10.41 -1.96 11.3 -2.34Q12.19 -2.72 12.81 -3.4Q13.42 -4.09 13.75 -5.04Q14.07 -5.99 14.07 -7.14L14.07 -18.2L16.52 -18.2L16.52 -7.14Q16.52 -5.56 16.02 -4.22Q15.52 -2.87 14.59 -1.89Q13.65 -0.9 12.31 -0.34Q10.96 0.22 9.28 0.22Q7.61 0.22 6.26 -0.34Q4.91 -0.9 3.98 -1.89Q3.04 -2.87 2.53 -4.22Q2.03 -5.56 2.03 -7.14L2.03 -18.2L4.48 -18.2L4.48 -7.15Q4.48 -6.01 4.81 -5.05Q5.13 -4.1 5.75 -3.42Q6.36 -2.73 7.26 -2.34Q8.15 -1.96 9.28 -1.96Z","advanceWidth":18.541999999999998,"advanceHeight":25.4,"leftBearing":2.032,"topBearing":2.2479,"bbox":{"minX":2.032,"minY":-0.21589999999999998,"maxX":16.5227,"maxY":18.199099999999998}},"V":{"dPath":"M0.1 -18.2L2.07 -18.2Q2.4 -18.2 2.6 -18.03Q2.81 -17.87 2.91 -17.61L8.05 -4.78Q8.23 -4.34 8.38 -3.84Q8.52 -3.33 8.66 -2.78Q8.78 -3.33 8.91 -3.84Q9.04 -4.34 9.22 -4.78L14.34 -17.61Q14.43 -17.83 14.64 -18.01Q14.86 -18.2 15.18 -18.2L17.16 -18.2L9.74 0L7.52 0Z","advanceWidth":17.272,"advanceHeight":25.4,"leftBearing":0.1016,"topBearing":2.2479,"bbox":{"minX":0.1016,"minY":0,"maxX":17.1577,"maxY":18.199099999999998}},"W":{"dPath":"M0.18 -18.2L2.22 -18.2Q2.55 -18.2 2.77 -18.03Q2.98 -17.87 3.06 -17.61L6.82 -4.97Q6.92 -4.62 7 -4.23Q7.09 -3.84 7.16 -3.4Q7.25 -3.84 7.34 -4.24Q7.43 -4.64 7.54 -4.97L11.82 -17.61Q11.9 -17.83 12.12 -18.01Q12.34 -18.2 12.66 -18.2L13.37 -18.2Q13.7 -18.2 13.91 -18.03Q14.12 -17.87 14.21 -17.61L18.47 -4.97Q18.69 -4.31 18.87 -3.45Q18.95 -3.87 19.01 -4.25Q19.08 -4.64 19.18 -4.97L22.95 -17.61Q23.01 -17.84 23.23 -18.02Q23.46 -18.2 23.77 -18.2L25.69 -18.2L20.02 0L17.81 0L13.2 -13.88Q13.06 -14.27 12.94 -14.8Q12.88 -14.54 12.82 -14.31Q12.76 -14.07 12.7 -13.88L8.06 0L5.85 0Z","advanceWidth":25.8826,"advanceHeight":25.4,"leftBearing":0.17779999999999999,"topBearing":2.2479,"bbox":{"minX":0.17779999999999999,"minY":0,"maxX":25.6921,"maxY":18.199099999999998}},"X":{"dPath":"M6.44 -9.35L0.43 -18.2L2.88 -18.2Q3.15 -18.2 3.28 -18.11Q3.4 -18.02 3.51 -17.86L8.25 -10.57Q8.34 -10.83 8.52 -11.15L13 -17.81Q13.12 -17.98 13.25 -18.09Q13.39 -18.2 13.58 -18.2L15.93 -18.2L9.89 -9.46L16.13 0L13.69 0Q13.41 0 13.25 -0.15Q13.09 -0.29 12.99 -0.47L8.12 -8.1Q8.03 -7.84 7.89 -7.59L3.14 -0.47Q3.02 -0.29 2.88 -0.15Q2.73 0 2.46 0L0.18 0Z","advanceWidth":16.3322,"advanceHeight":25.4,"leftBearing":0.17779999999999999,"topBearing":2.2479,"bbox":{"minX":0.17779999999999999,"minY":0,"maxX":16.128999999999998,"maxY":18.199099999999998}},"Y":{"dPath":"M9.22 -7.24L9.22 0L6.77 0L6.77 -7.24L0.1 -18.2L2.26 -18.2Q2.59 -18.2 2.78 -18.03Q2.97 -17.87 3.11 -17.63L7.28 -10.55Q7.53 -10.11 7.7 -9.72Q7.87 -9.32 8.01 -8.94Q8.15 -9.33 8.32 -9.73Q8.48 -10.12 8.74 -10.55L12.89 -17.63Q13 -17.83 13.2 -18.01Q13.4 -18.2 13.72 -18.2L15.9 -18.2Z","advanceWidth":15.9766,"advanceHeight":25.4,"leftBearing":0.1016,"topBearing":2.2479,"bbox":{"minX":0.1016,"minY":0,"maxX":15.9004,"maxY":18.199099999999998}},"Z":{"dPath":"M14.88 -18.2L14.88 -17.28Q14.88 -16.85 14.62 -16.47L4.32 -2.01L14.71 -2.01L14.71 0L1.09 0L1.09 -0.97Q1.09 -1.35 1.33 -1.69L11.65 -16.19L1.57 -16.19L1.57 -18.2Z","advanceWidth":15.849599999999999,"advanceHeight":25.4,"leftBearing":1.0922,"topBearing":2.2479,"bbox":{"minX":1.0922,"minY":0,"maxX":14.8844,"maxY":18.199099999999998}}," ":{"dPath":"","advanceWidth":4.9022,"advanceHeight":25.4,"leftBearing":0,"topBearing":2.2479,"bbox":{"minX":null,"minY":null,"maxX":null,"maxY":null}},",":{"dPath":"M1.19 -1.56Q1.19 -1.85 1.3 -2.11Q1.41 -2.37 1.61 -2.57Q1.8 -2.77 2.08 -2.88Q2.36 -3 2.69 -3Q3.07 -3 3.37 -2.86Q3.67 -2.72 3.87 -2.47Q4.06 -2.22 4.17 -1.9Q4.27 -1.57 4.27 -1.19Q4.27 -0.62 4.1 -0.01Q3.94 0.61 3.63 1.21Q3.33 1.82 2.88 2.39Q2.43 2.96 1.85 3.44L1.47 3.07Q1.31 2.92 1.31 2.72Q1.31 2.55 1.49 2.37Q1.61 2.24 1.81 2Q2.01 1.77 2.21 1.46Q2.41 1.16 2.58 0.79Q2.76 0.42 2.83 0L2.67 0Q2.34 0 2.07 -0.11Q1.8 -0.23 1.61 -0.44Q1.41 -0.65 1.3 -0.93Q1.19 -1.22 1.19 -1.56Z","advanceWidth":5.384799999999999,"advanceHeight":25.4,"leftBearing":1.1938,"topBearing":17.4498,"bbox":{"minX":1.1938,"minY":-3.4417,"maxX":4.2672,"maxY":2.9972}},".":{"dPath":"M1.12 -1.4Q1.12 -1.73 1.24 -2.02Q1.36 -2.31 1.57 -2.53Q1.78 -2.74 2.07 -2.87Q2.36 -3 2.69 -3Q3.02 -3 3.31 -2.87Q3.61 -2.74 3.82 -2.53Q4.04 -2.31 4.16 -2.02Q4.28 -1.73 4.28 -1.4Q4.28 -1.05 4.16 -0.77Q4.04 -0.48 3.82 -0.27Q3.61 -0.05 3.31 0.07Q3.02 0.19 2.69 0.19Q2.36 0.19 2.07 0.07Q1.78 -0.05 1.57 -0.27Q1.36 -0.48 1.24 -0.77Q1.12 -1.05 1.12 -1.4Z","advanceWidth":5.384799999999999,"advanceHeight":25.4,"leftBearing":1.1176,"topBearing":17.4498,"bbox":{"minX":1.1176,"minY":-0.1905,"maxX":4.2799,"maxY":2.9972}},";":{"dPath":"M1.7 -1.56Q1.7 -1.85 1.81 -2.11Q1.92 -2.37 2.11 -2.57Q2.31 -2.77 2.59 -2.88Q2.87 -3 3.2 -3Q3.58 -3 3.88 -2.86Q4.18 -2.72 4.38 -2.47Q4.57 -2.22 4.67 -1.9Q4.78 -1.57 4.78 -1.19Q4.78 -0.62 4.61 -0.01Q4.44 0.61 4.14 1.21Q3.84 1.82 3.38 2.39Q2.93 2.96 2.36 3.44L1.98 3.07Q1.82 2.92 1.82 2.72Q1.82 2.55 1.99 2.37Q2.12 2.24 2.32 2Q2.51 1.77 2.72 1.46Q2.92 1.16 3.09 0.79Q3.26 0.42 3.34 0L3.18 0Q2.84 0 2.58 -0.11Q2.31 -0.23 2.11 -0.44Q1.92 -0.65 1.81 -0.93Q1.7 -1.22 1.7 -1.56ZM1.63 -10.92Q1.63 -11.25 1.75 -11.54Q1.87 -11.84 2.08 -12.05Q2.29 -12.27 2.58 -12.4Q2.87 -12.52 3.2 -12.52Q3.53 -12.52 3.82 -12.4Q4.11 -12.27 4.33 -12.05Q4.55 -11.84 4.67 -11.54Q4.79 -11.25 4.79 -10.92Q4.79 -10.58 4.67 -10.29Q4.55 -10.01 4.33 -9.79Q4.11 -9.58 3.82 -9.46Q3.53 -9.33 3.2 -9.33Q2.87 -9.33 2.58 -9.46Q2.29 -9.58 2.08 -9.79Q1.87 -10.01 1.75 -10.29Q1.63 -10.58 1.63 -10.92Z","advanceWidth":6.400799999999999,"advanceHeight":25.4,"leftBearing":1.6256,"topBearing":7.924799999999999,"bbox":{"minX":1.6256,"minY":-3.4417,"maxX":4.7879,"maxY":12.5222}},":":{"dPath":"M1.63 -1.4Q1.63 -1.73 1.75 -2.02Q1.87 -2.31 2.08 -2.53Q2.29 -2.74 2.58 -2.87Q2.87 -3 3.2 -3Q3.53 -3 3.82 -2.87Q4.11 -2.74 4.33 -2.53Q4.55 -2.31 4.67 -2.02Q4.79 -1.73 4.79 -1.4Q4.79 -1.05 4.67 -0.77Q4.55 -0.48 4.33 -0.27Q4.11 -0.05 3.82 0.07Q3.53 0.19 3.2 0.19Q2.87 0.19 2.58 0.07Q2.29 -0.05 2.08 -0.27Q1.87 -0.48 1.75 -0.77Q1.63 -1.05 1.63 -1.4ZM1.63 -10.92Q1.63 -11.25 1.75 -11.54Q1.87 -11.84 2.08 -12.05Q2.29 -12.27 2.58 -12.4Q2.87 -12.52 3.2 -12.52Q3.53 -12.52 3.82 -12.4Q4.11 -12.27 4.33 -12.05Q4.55 -11.84 4.67 -11.54Q4.79 -11.25 4.79 -10.92Q4.79 -10.58 4.67 -10.29Q4.55 -10.01 4.33 -9.79Q4.11 -9.58 3.82 -9.46Q3.53 -9.33 3.2 -9.33Q2.87 -9.33 2.58 -9.46Q2.29 -9.58 2.08 -9.79Q1.87 -10.01 1.75 -10.29Q1.63 -10.58 1.63 -10.92Z","advanceWidth":6.400799999999999,"advanceHeight":25.4,"leftBearing":1.6256,"topBearing":7.924799999999999,"bbox":{"minX":1.6256,"minY":-0.1905,"maxX":4.7879,"maxY":12.5222}},"+":{"dPath":"M8.27 -14.81L8.27 -9.39L13.44 -9.39L13.44 -7.67L8.27 -7.67L8.27 -2.21L6.41 -2.21L6.41 -7.67L1.27 -7.67L1.27 -9.39L6.41 -9.39L6.41 -14.81Z","advanceWidth":14.732,"advanceHeight":25.4,"leftBearing":1.27,"topBearing":5.6388,"bbox":{"minX":1.27,"minY":2.2098,"maxX":13.4366,"maxY":14.8082}},"=":{"dPath":"M1.91 -7.29L12.81 -7.29L12.81 -5.58L1.91 -5.58ZM1.91 -11.54L12.81 -11.54L12.81 -9.83L1.91 -9.83Z","advanceWidth":14.732,"advanceHeight":25.4,"leftBearing":1.905,"topBearing":8.9027,"bbox":{"minX":1.905,"minY":5.5752999999999995,"maxX":12.8143,"maxY":11.5443}},"-":{"dPath":"M1.27 -8.57L7.54 -8.57L7.54 -6.65L1.27 -6.65Z","advanceWidth":8.8138,"advanceHeight":25.4,"leftBearing":1.27,"topBearing":11.8745,"bbox":{"minX":1.27,"minY":6.6548,"maxX":7.5438,"maxY":8.5725}},"_":{"dPath":"M10.01 2.1L10.01 3.62L0 3.62L0 2.1Z","advanceWidth":10.0076,"advanceHeight":25.4,"leftBearing":0,"topBearing":22.5425,"bbox":{"minX":0,"minY":-3.6195,"maxX":10.0076,"maxY":-2.0955}},"(":{"dPath":"M3.67 -7.99Q3.67 -5.27 4.37 -2.71Q5.07 -0.15 6.39 2.17Q6.46 2.31 6.49 2.41Q6.52 2.51 6.52 2.62Q6.52 2.79 6.43 2.91Q6.34 3.02 6.2 3.11L5.19 3.72Q4.24 2.26 3.58 0.83Q2.91 -0.61 2.5 -2.06Q2.08 -3.51 1.89 -4.97Q1.7 -6.44 1.7 -7.99Q1.7 -9.52 1.89 -11Q2.08 -12.47 2.5 -13.91Q2.91 -15.35 3.58 -16.79Q4.24 -18.22 5.19 -19.7L6.2 -19.08Q6.34 -18.99 6.43 -18.87Q6.52 -18.76 6.52 -18.58Q6.52 -18.39 6.39 -18.15Q5.05 -15.84 4.36 -13.27Q3.67 -10.71 3.67 -7.99Z","advanceWidth":7.62,"advanceHeight":25.4,"leftBearing":1.7018,"topBearing":0.7493,"bbox":{"minX":1.7018,"minY":-3.7211,"maxX":6.5150999999999994,"maxY":19.697699999999998}},")":{"dPath":"M3.78 -7.99Q3.78 -10.71 3.09 -13.27Q2.4 -15.84 1.07 -18.15Q0.94 -18.39 0.94 -18.58Q0.94 -18.76 1.03 -18.87Q1.12 -18.99 1.26 -19.08L2.26 -19.7Q3.21 -18.22 3.88 -16.79Q4.55 -15.35 4.96 -13.91Q5.37 -12.47 5.56 -11Q5.75 -9.52 5.75 -7.99Q5.75 -6.44 5.56 -4.97Q5.37 -3.51 4.96 -2.06Q4.55 -0.61 3.88 0.83Q3.21 2.26 2.26 3.72L1.26 3.11Q1.12 3.02 1.03 2.91Q0.94 2.79 0.94 2.62Q0.94 2.51 0.97 2.41Q0.99 2.31 1.07 2.17Q2.39 -0.15 3.09 -2.71Q3.78 -5.27 3.78 -7.99Z","advanceWidth":7.62,"advanceHeight":25.4,"leftBearing":0.9398,"topBearing":0.7493,"bbox":{"minX":0.9398,"minY":-3.7211,"maxX":5.7531,"maxY":19.697699999999998}},"*":{"dPath":"M4.5 -10.96L4.5 -13.46Q4.5 -13.7 4.53 -13.92Q4.56 -14.14 4.65 -14.34Q4.39 -14.02 3.98 -13.77L1.79 -12.51L1.23 -13.46L3.42 -14.73Q3.87 -15 4.34 -15.04Q4.09 -15.06 3.87 -15.13Q3.64 -15.2 3.42 -15.35L1.22 -16.64L1.78 -17.59L3.98 -16.32Q4.42 -16.07 4.7 -15.66Q4.58 -15.89 4.54 -16.12Q4.5 -16.36 4.5 -16.61L4.5 -19.13L5.61 -19.13L5.61 -16.62Q5.61 -16.1 5.44 -15.71Q5.58 -15.9 5.75 -16.04Q5.92 -16.18 6.13 -16.32L8.32 -17.58L8.88 -16.62L6.69 -15.35Q6.48 -15.21 6.27 -15.14Q6.06 -15.06 5.83 -15.04Q6.06 -15.01 6.27 -14.94Q6.48 -14.87 6.69 -14.73L8.89 -13.45L8.33 -12.5L6.13 -13.77Q5.91 -13.91 5.73 -14.05Q5.55 -14.19 5.41 -14.39Q5.61 -13.97 5.61 -13.47L5.61 -10.96Z","advanceWidth":10.16,"advanceHeight":25.4,"leftBearing":1.2191999999999998,"topBearing":1.3208,"bbox":{"minX":1.2191999999999998,"minY":10.960099999999999,"maxX":8.889999999999999,"maxY":19.1262}},"&":{"dPath":"M8.38 -18.4Q9.39 -18.4 10.21 -18.08Q11.04 -17.75 11.64 -17.22Q12.24 -16.69 12.59 -15.98Q12.94 -15.28 12.99 -14.52L11.58 -14.24Q11.52 -14.22 11.47 -14.22Q11.3 -14.22 11.16 -14.31Q11.01 -14.4 10.95 -14.63Q10.86 -14.96 10.66 -15.32Q10.46 -15.67 10.15 -15.96Q9.84 -16.26 9.4 -16.45Q8.97 -16.64 8.38 -16.64Q7.75 -16.64 7.24 -16.43Q6.73 -16.23 6.37 -15.87Q6.01 -15.51 5.81 -15.02Q5.61 -14.53 5.61 -13.96Q5.61 -13.51 5.72 -13.11Q5.83 -12.7 6.05 -12.29Q6.26 -11.87 6.6 -11.44Q6.95 -11 7.43 -10.52L12.66 -5.19Q13.14 -6.05 13.43 -6.98Q13.72 -7.91 13.82 -8.85Q13.84 -9.09 13.97 -9.23Q14.1 -9.37 14.33 -9.37L15.72 -9.37Q15.7 -7.91 15.25 -6.5Q14.81 -5.09 13.97 -3.86L17.78 0L15.6 0Q15.23 0 15 -0.09Q14.77 -0.18 14.49 -0.46L12.66 -2.3Q11.47 -1.14 9.91 -0.47Q8.36 0.2 6.49 0.2Q5.47 0.2 4.5 -0.14Q3.52 -0.48 2.75 -1.14Q1.98 -1.79 1.51 -2.73Q1.04 -3.67 1.04 -4.85Q1.04 -5.74 1.34 -6.53Q1.64 -7.33 2.17 -8Q2.69 -8.67 3.42 -9.21Q4.14 -9.74 5 -10.12Q4.23 -11.1 3.86 -12.03Q3.49 -12.95 3.49 -13.94Q3.49 -14.87 3.83 -15.68Q4.17 -16.5 4.8 -17.1Q5.44 -17.7 6.34 -18.05Q7.25 -18.4 8.38 -18.4ZM3.34 -5.03Q3.34 -4.2 3.64 -3.58Q3.95 -2.95 4.44 -2.51Q4.94 -2.08 5.58 -1.86Q6.21 -1.64 6.87 -1.64Q8.29 -1.64 9.42 -2.16Q10.55 -2.68 11.42 -3.54L6.05 -8.97Q4.7 -8.24 4.02 -7.23Q3.34 -6.22 3.34 -5.03Z","advanceWidth":17.856199999999998,"advanceHeight":25.4,"leftBearing":1.0413999999999999,"topBearing":2.0446999999999997,"bbox":{"minX":1.0413999999999999,"minY":-0.2032,"maxX":17.779999999999998,"maxY":18.4023}},"^":{"dPath":"M6.55 -18.2L8.01 -18.2L12.56 -9.99L10.92 -9.99Q10.71 -9.99 10.55 -10.12Q10.4 -10.25 10.3 -10.43L7.81 -14.9Q7.65 -15.19 7.52 -15.46Q7.4 -15.74 7.32 -16Q7.14 -15.44 6.85 -14.9L4.38 -10.43Q4.28 -10.25 4.13 -10.12Q3.99 -9.99 3.73 -9.99L2.01 -9.99Z","advanceWidth":14.732,"advanceHeight":25.4,"leftBearing":2.0065999999999997,"topBearing":2.2479,"bbox":{"minX":2.0065999999999997,"minY":9.9949,"maxX":12.5603,"maxY":18.199099999999998}},"%":{"dPath":"M8.98 -13.8Q8.98 -12.74 8.65 -11.89Q8.32 -11.05 7.77 -10.47Q7.21 -9.89 6.48 -9.59Q5.74 -9.28 4.94 -9.28Q4.08 -9.28 3.35 -9.59Q2.62 -9.89 2.07 -10.47Q1.52 -11.05 1.22 -11.89Q0.91 -12.74 0.91 -13.8Q0.91 -14.9 1.22 -15.75Q1.52 -16.6 2.07 -17.18Q2.62 -17.77 3.35 -18.07Q4.08 -18.38 4.94 -18.38Q5.79 -18.38 6.53 -18.07Q7.28 -17.77 7.82 -17.18Q8.36 -16.6 8.67 -15.75Q8.98 -14.9 8.98 -13.8ZM7.21 -13.8Q7.21 -14.64 7.04 -15.23Q6.86 -15.81 6.55 -16.19Q6.24 -16.56 5.82 -16.73Q5.41 -16.89 4.94 -16.89Q4.47 -16.89 4.06 -16.73Q3.64 -16.56 3.34 -16.19Q3.04 -15.81 2.86 -15.23Q2.69 -14.64 2.69 -13.8Q2.69 -12.98 2.86 -12.4Q3.04 -11.82 3.34 -11.46Q3.64 -11.1 4.06 -10.94Q4.47 -10.78 4.94 -10.78Q5.41 -10.78 5.82 -10.94Q6.24 -11.1 6.55 -11.46Q6.86 -11.82 7.04 -12.4Q7.21 -12.98 7.21 -13.8ZM15.34 -17.74Q15.51 -17.96 15.69 -18.08Q15.88 -18.2 16.18 -18.2L17.81 -18.2L4.51 -0.37Q4.38 -0.2 4.2 -0.1Q4.03 0 3.78 0L2.11 0ZM19.04 -4.29Q19.04 -3.23 18.71 -2.39Q18.38 -1.55 17.82 -0.97Q17.27 -0.39 16.54 -0.09Q15.81 0.22 15.01 0.22Q14.15 0.22 13.42 -0.09Q12.69 -0.39 12.14 -0.97Q11.6 -1.55 11.29 -2.39Q10.99 -3.23 10.99 -4.29Q10.99 -5.38 11.29 -6.24Q11.6 -7.1 12.14 -7.68Q12.69 -8.27 13.42 -8.57Q14.15 -8.88 15.01 -8.88Q15.86 -8.88 16.6 -8.57Q17.34 -8.27 17.88 -7.68Q18.43 -7.1 18.73 -6.24Q19.04 -5.38 19.04 -4.29ZM17.28 -4.29Q17.28 -5.13 17.11 -5.72Q16.93 -6.31 16.62 -6.68Q16.31 -7.05 15.89 -7.21Q15.48 -7.38 15.01 -7.38Q14.54 -7.38 14.13 -7.21Q13.72 -7.05 13.41 -6.68Q13.11 -6.31 12.93 -5.72Q12.76 -5.13 12.76 -4.29Q12.76 -3.47 12.93 -2.9Q13.11 -2.32 13.41 -1.96Q13.72 -1.6 14.13 -1.44Q14.54 -1.28 15.01 -1.28Q15.48 -1.28 15.89 -1.44Q16.31 -1.6 16.62 -1.96Q16.93 -2.32 17.11 -2.9Q17.28 -3.47 17.28 -4.29Z","advanceWidth":19.964399999999998,"advanceHeight":25.4,"leftBearing":0.9144,"topBearing":2.0701,"bbox":{"minX":0.9144,"minY":-0.21589999999999998,"maxX":19.0373,"maxY":18.3769}},"$":{"dPath":"M6.32 0.15Q4.79 0.01 3.52 -0.6Q2.26 -1.22 1.35 -2.17L2.02 -3.21Q2.11 -3.35 2.27 -3.44Q2.44 -3.53 2.62 -3.53Q2.86 -3.53 3.16 -3.29Q3.47 -3.05 3.91 -2.74Q4.36 -2.43 4.97 -2.13Q5.59 -1.84 6.45 -1.74L6.92 -8.48Q6.03 -8.75 5.18 -9.09Q4.32 -9.42 3.64 -9.96Q2.96 -10.5 2.55 -11.32Q2.13 -12.14 2.13 -13.37Q2.13 -14.3 2.5 -15.18Q2.86 -16.07 3.55 -16.75Q4.24 -17.44 5.26 -17.88Q6.27 -18.31 7.59 -18.36L7.72 -20.19Q7.75 -20.43 7.91 -20.62Q8.08 -20.82 8.36 -20.82L9.19 -20.82L9.02 -18.3Q10.35 -18.14 11.32 -17.61Q12.28 -17.09 13.04 -16.36L12.5 -15.52Q12.24 -15.14 11.91 -15.14Q11.73 -15.14 11.47 -15.3Q11.21 -15.46 10.85 -15.67Q10.48 -15.87 9.99 -16.08Q9.51 -16.29 8.89 -16.38L8.47 -10.24Q9.39 -9.96 10.27 -9.63Q11.16 -9.3 11.87 -8.78Q12.59 -8.25 13.02 -7.47Q13.46 -6.69 13.46 -5.52Q13.46 -4.38 13.08 -3.38Q12.7 -2.37 11.97 -1.61Q11.24 -0.85 10.18 -0.37Q9.12 0.1 7.76 0.18L7.61 2.41Q7.58 2.65 7.41 2.84Q7.24 3.02 6.97 3.02L6.13 3.02ZM11.32 -5.17Q11.32 -5.8 11.08 -6.26Q10.85 -6.72 10.44 -7.05Q10.03 -7.38 9.49 -7.62Q8.94 -7.86 8.32 -8.06L7.89 -1.74Q8.71 -1.82 9.35 -2.1Q9.99 -2.39 10.43 -2.83Q10.87 -3.28 11.09 -3.87Q11.32 -4.46 11.32 -5.17ZM4.27 -13.6Q4.27 -12.99 4.48 -12.54Q4.7 -12.09 5.08 -11.75Q5.46 -11.4 5.97 -11.15Q6.48 -10.9 7.07 -10.69L7.45 -16.42Q6.63 -16.34 6.03 -16.09Q5.42 -15.84 5.04 -15.46Q4.65 -15.07 4.46 -14.6Q4.27 -14.12 4.27 -13.6Z","advanceWidth":14.732,"advanceHeight":25.4,"leftBearing":1.3461999999999998,"topBearing":-0.36829999999999996,"bbox":{"minX":1.3461999999999998,"minY":-3.0225999999999997,"maxX":13.462,"maxY":20.8153}},"#":{"dPath":"M10.03 -5.37L8.97 0L7.94 0Q7.65 0 7.44 -0.22Q7.24 -0.43 7.24 -0.77Q7.24 -0.83 7.25 -0.87Q7.25 -0.91 7.26 -0.98L8.17 -5.37L5.03 -5.37L4.13 -0.86Q4.03 -0.39 3.74 -0.2Q3.45 0 3.09 0L2.08 0L3.16 -5.37L1.31 -5.37Q1.02 -5.37 0.85 -5.52Q0.69 -5.66 0.69 -6.02Q0.69 -6.08 0.69 -6.16Q0.7 -6.24 0.71 -6.31L0.81 -7.04L3.4 -7.04L4.23 -11.18L1.28 -11.18L1.45 -12.12Q1.51 -12.48 1.74 -12.66Q1.97 -12.84 2.46 -12.84L4.47 -12.84L5.38 -17.39Q5.46 -17.77 5.73 -17.98Q6.01 -18.2 6.39 -18.2L7.4 -18.2L6.34 -12.84L9.47 -12.84L10.54 -18.2L11.54 -18.2Q11.86 -18.2 12.07 -18.01Q12.28 -17.82 12.28 -17.51Q12.28 -17.41 12.27 -17.35L11.34 -12.84L14.03 -12.84L13.87 -11.89Q13.8 -11.52 13.57 -11.35Q13.34 -11.18 12.85 -11.18L11.1 -11.18L10.27 -7.04L12.55 -7.04Q12.85 -7.04 13.02 -6.89Q13.18 -6.74 13.18 -6.38Q13.18 -6.31 13.18 -6.24Q13.17 -6.17 13.16 -6.1L13.04 -5.37ZM5.27 -7.04L8.41 -7.04L9.23 -11.18L6.1 -11.18Z","advanceWidth":14.732,"advanceHeight":25.4,"leftBearing":0.6858,"topBearing":2.2479,"bbox":{"minX":0.6858,"minY":0,"maxX":14.0335,"maxY":18.199099999999998}},"@":{"dPath":"M14.82 -2.36Q13.83 -2.36 13.21 -2.84Q12.59 -3.31 12.42 -4.31Q11.68 -3.28 10.82 -2.83Q9.96 -2.39 8.97 -2.39Q8.2 -2.39 7.65 -2.65Q7.09 -2.91 6.71 -3.37Q6.34 -3.84 6.15 -4.47Q5.97 -5.11 5.97 -5.84Q5.97 -6.92 6.38 -8.02Q6.79 -9.12 7.61 -10Q8.42 -10.88 9.63 -11.44Q10.85 -12 12.43 -12Q13.28 -12 13.93 -11.87Q14.57 -11.73 15.14 -11.48L13.96 -6.9Q13.72 -5.94 13.72 -5.32Q13.72 -4.86 13.83 -4.57Q13.94 -4.27 14.14 -4.1Q14.34 -3.92 14.6 -3.86Q14.86 -3.8 15.15 -3.8Q15.77 -3.8 16.33 -4.15Q16.89 -4.51 17.32 -5.16Q17.74 -5.8 17.99 -6.71Q18.24 -7.62 18.24 -8.72Q18.24 -10.48 17.67 -11.8Q17.11 -13.12 16.12 -14Q15.14 -14.88 13.8 -15.32Q12.46 -15.76 10.91 -15.76Q9.21 -15.76 7.72 -15.11Q6.24 -14.47 5.13 -13.32Q4.03 -12.18 3.39 -10.62Q2.76 -9.06 2.76 -7.21Q2.76 -5.05 3.44 -3.42Q4.11 -1.79 5.29 -0.69Q6.46 0.42 8.05 0.98Q9.63 1.54 11.44 1.54Q13.37 1.54 14.85 1.12Q16.33 0.7 17.41 0.05Q17.6 -0.06 17.75 -0.06Q18.02 -0.06 18.15 0.24L18.47 1.08Q17.11 1.99 15.37 2.51Q13.64 3.04 11.44 3.04Q9.25 3.04 7.35 2.34Q5.46 1.64 4.07 0.32Q2.68 -0.99 1.89 -2.9Q1.09 -4.8 1.09 -7.21Q1.09 -8.6 1.44 -9.88Q1.79 -11.16 2.43 -12.27Q3.06 -13.39 3.95 -14.31Q4.84 -15.23 5.93 -15.88Q7.02 -16.54 8.28 -16.9Q9.54 -17.26 10.91 -17.26Q12.08 -17.26 13.2 -17.01Q14.31 -16.75 15.31 -16.26Q16.31 -15.76 17.15 -15.03Q17.98 -14.3 18.59 -13.35Q19.19 -12.41 19.53 -11.25Q19.86 -10.08 19.86 -8.72Q19.86 -7.35 19.48 -6.19Q19.09 -5.03 18.41 -4.18Q17.73 -3.33 16.81 -2.84Q15.89 -2.36 14.82 -2.36ZM9.41 -3.89Q9.8 -3.89 10.2 -4.01Q10.6 -4.14 10.98 -4.46Q11.35 -4.78 11.66 -5.32Q11.98 -5.87 12.19 -6.69L13.16 -10.44Q12.66 -10.55 12.08 -10.55Q11.13 -10.55 10.33 -10.15Q9.54 -9.75 8.97 -9.11Q8.39 -8.46 8.07 -7.62Q7.75 -6.78 7.75 -5.91Q7.75 -4.99 8.17 -4.44Q8.59 -3.89 9.41 -3.89Z","advanceWidth":20.8788,"advanceHeight":25.4,"leftBearing":1.0922,"topBearing":3.1877,"bbox":{"minX":1.0922,"minY":-3.0353,"maxX":19.8628,"maxY":17.2593}},"!":{"dPath":"M5.46 -18.2L5.46 -10.93Q5.46 -10.36 5.44 -9.82Q5.42 -9.27 5.38 -8.72Q5.35 -8.17 5.29 -7.59Q5.23 -7.01 5.16 -6.35L3.62 -6.35Q3.54 -7.01 3.49 -7.59Q3.43 -8.17 3.39 -8.72Q3.35 -9.27 3.33 -9.82Q3.31 -10.36 3.31 -10.93L3.31 -18.2ZM2.77 -1.4Q2.77 -1.73 2.89 -2.02Q3.01 -2.31 3.22 -2.53Q3.43 -2.74 3.72 -2.87Q4.01 -3 4.34 -3Q4.67 -3 4.97 -2.87Q5.26 -2.74 5.47 -2.53Q5.69 -2.31 5.81 -2.02Q5.93 -1.73 5.93 -1.4Q5.93 -1.05 5.81 -0.77Q5.69 -0.48 5.47 -0.27Q5.26 -0.05 4.97 0.07Q4.67 0.19 4.34 0.19Q4.01 0.19 3.72 0.07Q3.43 -0.05 3.22 -0.27Q3.01 -0.48 2.89 -0.77Q2.77 -1.05 2.77 -1.4Z","advanceWidth":8.7122,"advanceHeight":25.4,"leftBearing":2.7685999999999997,"topBearing":2.2479,"bbox":{"minX":2.7685999999999997,"minY":-0.1905,"maxX":5.930899999999999,"maxY":18.199099999999998}},"~":{"dPath":"M9.64 -7.79Q10.46 -7.79 10.93 -8.32Q11.39 -8.86 11.4 -9.75L13.23 -9.75Q13.23 -8.9 13 -8.19Q12.76 -7.48 12.33 -6.97Q11.89 -6.46 11.24 -6.18Q10.59 -5.91 9.78 -5.91Q9.12 -5.91 8.47 -6.11Q7.82 -6.31 7.22 -6.56Q6.62 -6.81 6.07 -7.02Q5.52 -7.23 5.07 -7.23Q4.24 -7.23 3.78 -6.69Q3.31 -6.16 3.3 -5.26L1.47 -5.26Q1.47 -6.11 1.71 -6.82Q1.94 -7.53 2.38 -8.04Q2.82 -8.55 3.46 -8.83Q4.1 -9.12 4.93 -9.12Q5.59 -9.12 6.24 -8.91Q6.88 -8.7 7.49 -8.45Q8.09 -8.2 8.64 -7.99Q9.18 -7.79 9.64 -7.79Z","advanceWidth":14.732,"advanceHeight":25.4,"leftBearing":1.4731999999999998,"topBearing":10.693399999999999,"bbox":{"minX":1.4731999999999998,"minY":5.2578,"maxX":13.2334,"maxY":9.753599999999999}},"`":{"dPath":"M2.63 -18.4Q3.05 -18.4 3.25 -18.27Q3.45 -18.14 3.63 -17.84L5.52 -14.77L4.23 -14.77Q3.96 -14.77 3.8 -14.85Q3.63 -14.94 3.45 -15.13L0.48 -18.4Z","advanceWidth":7.7978,"advanceHeight":25.4,"leftBearing":0.4826,"topBearing":2.0446999999999997,"bbox":{"minX":0.4826,"minY":14.7701,"maxX":5.5245,"maxY":18.4023}},"\"":{"dPath":"M3.9 -18.2L3.9 -14.52L3.7 -12.55Q3.66 -12.14 3.48 -11.92Q3.3 -11.7 2.91 -11.7Q2.58 -11.7 2.39 -11.92Q2.21 -12.14 2.13 -12.55L1.93 -14.52L1.93 -18.2ZM8.13 -18.2L8.13 -14.52L7.92 -12.55Q7.89 -12.14 7.71 -11.92Q7.53 -11.7 7.14 -11.7Q6.81 -11.7 6.62 -11.92Q6.44 -12.14 6.36 -12.55L6.16 -14.52L6.16 -18.2Z","advanceWidth":10.0838,"advanceHeight":25.4,"leftBearing":1.9304,"topBearing":2.2479,"bbox":{"minX":1.9304,"minY":11.6967,"maxX":8.128,"maxY":18.199099999999998}},"'":{"dPath":"M3.9 -18.2L3.9 -14.52L3.7 -12.55Q3.66 -12.14 3.48 -11.92Q3.3 -11.7 2.91 -11.7Q2.58 -11.7 2.39 -11.92Q2.21 -12.14 2.13 -12.55L1.93 -14.52L1.93 -18.2Z","advanceWidth":5.842,"advanceHeight":25.4,"leftBearing":1.9304,"topBearing":2.2479,"bbox":{"minX":1.9304,"minY":11.6967,"maxX":3.8989,"maxY":18.199099999999998}},"<":{"dPath":"M1.88 -9.02L11.71 -14.11L11.71 -12.5Q11.71 -12.28 11.61 -12.12Q11.51 -11.96 11.25 -11.84L5.55 -8.94Q5.3 -8.8 5.01 -8.71Q4.72 -8.61 4.41 -8.53Q4.72 -8.47 5.01 -8.37Q5.3 -8.27 5.55 -8.14L11.25 -5.26Q11.51 -5.13 11.61 -4.97Q11.71 -4.8 11.71 -4.6L11.71 -2.97L1.88 -8.08Z","advanceWidth":14.732,"advanceHeight":25.4,"leftBearing":1.8796,"topBearing":6.3373,"bbox":{"minX":1.8796,"minY":2.9718,"maxX":11.709399999999999,"maxY":14.1097}},">":{"dPath":"M3.02 -2.97L3.02 -4.6Q3.02 -4.8 3.12 -4.97Q3.23 -5.13 3.48 -5.26L9.18 -8.14Q9.44 -8.27 9.71 -8.37Q9.98 -8.47 10.3 -8.53Q9.98 -8.61 9.71 -8.71Q9.44 -8.8 9.18 -8.94L3.48 -11.84Q3.23 -11.96 3.12 -12.12Q3.02 -12.28 3.02 -12.5L3.02 -14.11L12.84 -9.02L12.84 -8.08Z","advanceWidth":14.732,"advanceHeight":25.4,"leftBearing":3.0225999999999997,"topBearing":6.3373,"bbox":{"minX":3.0225999999999997,"minY":2.9718,"maxX":12.839699999999999,"maxY":14.1097}},"/":{"dPath":"M2.04 0.27Q1.87 0.71 1.52 0.93Q1.17 1.14 0.8 1.14L-0.15 1.14L7.48 -17.87Q7.65 -18.28 7.95 -18.49Q8.25 -18.71 8.67 -18.71L9.63 -18.71Z","advanceWidth":9.4742,"advanceHeight":25.4,"leftBearing":-0.15239999999999998,"topBearing":1.7399,"bbox":{"minX":-0.15239999999999998,"minY":-1.143,"maxX":9.6266,"maxY":18.7071}},"?":{"dPath":"M0.43 -16.57Q0.83 -16.94 1.3 -17.27Q1.78 -17.6 2.34 -17.86Q2.91 -18.11 3.56 -18.26Q4.22 -18.4 4.98 -18.4Q5.98 -18.4 6.84 -18.11Q7.7 -17.82 8.32 -17.28Q8.94 -16.75 9.3 -15.99Q9.65 -15.23 9.65 -14.27Q9.65 -13.31 9.37 -12.61Q9.08 -11.91 8.64 -11.39Q8.2 -10.86 7.68 -10.47Q7.16 -10.08 6.71 -9.74Q6.26 -9.4 5.94 -9.06Q5.61 -8.71 5.56 -8.29L5.33 -6.35L3.78 -6.35L3.63 -8.46L3.63 -8.6Q3.63 -9.13 3.92 -9.54Q4.2 -9.96 4.64 -10.32Q5.08 -10.68 5.58 -11.04Q6.08 -11.4 6.52 -11.84Q6.96 -12.28 7.25 -12.84Q7.53 -13.4 7.53 -14.16Q7.53 -14.71 7.32 -15.15Q7.1 -15.6 6.73 -15.91Q6.36 -16.22 5.86 -16.38Q5.36 -16.55 4.79 -16.55Q4.01 -16.55 3.46 -16.36Q2.91 -16.17 2.53 -15.94Q2.15 -15.71 1.91 -15.52Q1.68 -15.33 1.52 -15.33Q1.21 -15.33 1.03 -15.62ZM2.92 -1.4Q2.92 -1.73 3.04 -2.02Q3.16 -2.31 3.37 -2.53Q3.58 -2.74 3.87 -2.87Q4.17 -3 4.5 -3Q4.83 -3 5.12 -2.87Q5.41 -2.74 5.63 -2.53Q5.84 -2.31 5.96 -2.02Q6.08 -1.73 6.08 -1.4Q6.08 -1.05 5.96 -0.77Q5.84 -0.48 5.63 -0.27Q5.41 -0.05 5.12 0.07Q4.83 0.19 4.5 0.19Q4.17 0.19 3.87 0.07Q3.58 -0.05 3.37 -0.27Q3.16 -0.48 3.04 -0.77Q2.92 -1.05 2.92 -1.4Z","advanceWidth":10.1092,"advanceHeight":25.4,"leftBearing":0.43179999999999996,"topBearing":2.0446999999999997,"bbox":{"minX":0.43179999999999996,"minY":-0.1905,"maxX":9.652,"maxY":18.4023}},"\\":{"dPath":"M-0.25 -18.71L0.71 -18.71Q1.13 -18.71 1.44 -18.49Q1.74 -18.28 1.91 -17.87L9.54 1.14L8.59 1.14Q8.22 1.14 7.86 0.93Q7.51 0.71 7.34 0.27Z","advanceWidth":9.525,"advanceHeight":25.4,"leftBearing":-0.254,"topBearing":1.7399,"bbox":{"minX":-0.254,"minY":-1.143,"maxX":9.5377,"maxY":18.7071}},"|":{"dPath":"M2.92 -19.47L4.67 -19.47L4.67 4.36L2.92 4.36Z","advanceWidth":7.62,"advanceHeight":25.4,"leftBearing":2.921,"topBearing":0.9779,"bbox":{"minX":2.921,"minY":-4.3561,"maxX":4.6735999999999995,"maxY":19.4691}},"]":{"dPath":"M1.14 2.78Q1.14 2.53 1.31 2.35Q1.49 2.17 1.77 2.17L3.91 2.17L3.91 -17.98L1.77 -17.98Q1.49 -17.98 1.31 -18.15Q1.14 -18.33 1.14 -18.58L1.14 -19.47L5.82 -19.47L5.82 3.67L1.14 3.67Z","advanceWidth":7.62,"advanceHeight":25.4,"leftBearing":1.143,"topBearing":0.9779,"bbox":{"minX":1.143,"minY":-3.6702999999999997,"maxX":5.816599999999999,"maxY":19.4691}},"[":{"dPath":"M1.8 3.67L1.8 -19.47L6.48 -19.47L6.48 -18.58Q6.48 -18.3 6.31 -18.14Q6.13 -17.98 5.85 -17.98L3.71 -17.98L3.71 2.17L5.85 2.17Q6.13 2.17 6.31 2.33Q6.48 2.49 6.48 2.78L6.48 3.67Z","advanceWidth":7.62,"advanceHeight":25.4,"leftBearing":1.8034,"topBearing":0.9779,"bbox":{"minX":1.8034,"minY":-3.6702999999999997,"maxX":6.476999999999999,"maxY":19.4691}},"{":{"dPath":"M2.3 -5.4Q2.3 -6.2 1.85 -6.71Q1.41 -7.23 0.56 -7.23L0.56 -8.59Q1.41 -8.59 1.85 -9.09Q2.3 -9.6 2.3 -10.41Q2.3 -11.05 2.2 -11.67Q2.1 -12.29 1.97 -12.92Q1.85 -13.54 1.75 -14.17Q1.65 -14.81 1.65 -15.47Q1.65 -16.34 1.91 -17.08Q2.17 -17.82 2.7 -18.35Q3.23 -18.88 4.01 -19.18Q4.79 -19.47 5.83 -19.47L6.5 -19.47L6.5 -18.47Q6.5 -18.21 6.32 -18.1Q6.15 -17.98 5.99 -17.98L5.74 -17.98Q4.76 -17.98 4.2 -17.34Q3.63 -16.7 3.63 -15.61Q3.63 -14.9 3.72 -14.24Q3.81 -13.58 3.92 -12.95Q4.04 -12.32 4.13 -11.7Q4.22 -11.07 4.22 -10.44Q4.22 -9.96 4.08 -9.54Q3.94 -9.13 3.68 -8.81Q3.42 -8.48 3.07 -8.25Q2.72 -8.01 2.3 -7.9Q2.72 -7.79 3.07 -7.55Q3.42 -7.32 3.68 -6.98Q3.94 -6.65 4.08 -6.25Q4.22 -5.84 4.22 -5.37Q4.22 -4.74 4.13 -4.11Q4.04 -3.49 3.92 -2.86Q3.81 -2.24 3.72 -1.57Q3.63 -0.91 3.63 -0.2Q3.63 0.9 4.2 1.54Q4.76 2.17 5.74 2.17L5.99 2.17Q6.15 2.17 6.32 2.29Q6.5 2.4 6.5 2.65L6.5 3.67L5.83 3.67Q4.79 3.67 4.01 3.37Q3.23 3.07 2.7 2.54Q2.17 2.01 1.91 1.27Q1.65 0.53 1.65 -0.34Q1.65 -1 1.75 -1.63Q1.85 -2.26 1.97 -2.89Q2.1 -3.52 2.2 -4.14Q2.3 -4.76 2.3 -5.4Z","advanceWidth":7.62,"advanceHeight":25.4,"leftBearing":0.5588,"topBearing":0.9779,"bbox":{"minX":0.5588,"minY":-3.6702999999999997,"maxX":6.5024,"maxY":19.4691}},"}":{"dPath":"M5.32 -5.4Q5.32 -4.76 5.42 -4.14Q5.52 -3.52 5.65 -2.89Q5.77 -2.26 5.87 -1.63Q5.97 -1 5.97 -0.34Q5.97 0.53 5.7 1.27Q5.44 2.01 4.91 2.54Q4.39 3.07 3.61 3.37Q2.83 3.67 1.79 3.67L1.12 3.67L1.12 2.65Q1.12 2.4 1.3 2.29Q1.47 2.17 1.63 2.17L1.88 2.17Q2.86 2.17 3.42 1.54Q3.99 0.9 3.99 -0.2Q3.99 -0.91 3.9 -1.57Q3.81 -2.24 3.7 -2.86Q3.58 -3.49 3.49 -4.11Q3.4 -4.74 3.4 -5.37Q3.4 -5.84 3.54 -6.25Q3.68 -6.65 3.94 -6.98Q4.2 -7.32 4.55 -7.55Q4.9 -7.79 5.32 -7.9Q4.9 -8.01 4.55 -8.25Q4.2 -8.48 3.94 -8.81Q3.68 -9.13 3.54 -9.54Q3.4 -9.96 3.4 -10.44Q3.4 -11.07 3.49 -11.7Q3.58 -12.32 3.7 -12.95Q3.81 -13.58 3.9 -14.24Q3.99 -14.9 3.99 -15.61Q3.99 -16.7 3.42 -17.34Q2.86 -17.98 1.88 -17.98L1.63 -17.98Q1.47 -17.98 1.3 -18.1Q1.12 -18.21 1.12 -18.47L1.12 -19.47L1.79 -19.47Q2.83 -19.47 3.61 -19.18Q4.39 -18.88 4.91 -18.35Q5.44 -17.82 5.7 -17.08Q5.97 -16.34 5.97 -15.47Q5.97 -14.81 5.87 -14.17Q5.77 -13.54 5.65 -12.92Q5.52 -12.29 5.42 -11.67Q5.32 -11.05 5.32 -10.41Q5.32 -9.6 5.77 -9.09Q6.21 -8.59 7.06 -8.59L7.06 -7.23Q6.21 -7.23 5.77 -6.71Q5.32 -6.2 5.32 -5.4Z","advanceWidth":7.62,"advanceHeight":25.4,"leftBearing":1.1176,"topBearing":0.9779,"bbox":{"minX":1.1176,"minY":-3.6702999999999997,"maxX":7.0611999999999995,"maxY":19.4691}}},"glyphDataByGid":{"{\"gid\":68,\"fontFamily\":\"Lato\",\"fontSubfamily\":\"Regular\",\"fontSource\":\"build-in\"}":{"dPath":"M11.3 0L10.3 0Q9.97 0 9.77 -0.1Q9.56 -0.2 9.5 -0.53L9.25 -1.73Q8.74 -1.27 8.25 -0.91Q7.77 -0.55 7.24 -0.3Q6.71 -0.05 6.1 0.08Q5.5 0.2 4.76 0.2Q4.01 0.2 3.36 -0.01Q2.71 -0.22 2.22 -0.63Q1.74 -1.05 1.45 -1.7Q1.17 -2.34 1.17 -3.21Q1.17 -3.98 1.59 -4.68Q2.01 -5.38 2.94 -5.93Q3.87 -6.48 5.38 -6.83Q6.9 -7.18 9.08 -7.23L9.08 -8.23Q9.08 -9.73 8.44 -10.5Q7.8 -11.26 6.54 -11.26Q5.72 -11.26 5.15 -11.06Q4.58 -10.85 4.17 -10.59Q3.76 -10.33 3.46 -10.12Q3.16 -9.91 2.87 -9.91Q2.64 -9.91 2.47 -10.03Q2.3 -10.15 2.2 -10.33L1.79 -11.05Q2.86 -12.08 4.09 -12.59Q5.32 -13.09 6.82 -13.09Q7.9 -13.09 8.74 -12.74Q9.58 -12.38 10.15 -11.75Q10.72 -11.11 11.01 -10.21Q11.3 -9.31 11.3 -8.23ZM5.44 -1.38Q6.03 -1.38 6.53 -1.5Q7.02 -1.63 7.46 -1.85Q7.9 -2.07 8.3 -2.39Q8.7 -2.71 9.08 -3.11L9.08 -5.79Q7.52 -5.74 6.43 -5.54Q5.33 -5.35 4.65 -5.03Q3.96 -4.71 3.65 -4.28Q3.34 -3.85 3.34 -3.31Q3.34 -2.81 3.51 -2.44Q3.67 -2.07 3.95 -1.84Q4.23 -1.6 4.61 -1.49Q4.99 -1.38 5.44 -1.38Z","advanceWidth":12.877799999999999,"advanceHeight":25.4,"leftBearing":1.1683999999999999,"topBearing":7.3533,"bbox":{"minX":1.1683999999999999,"minY":-0.2032,"maxX":11.302999999999999,"maxY":13.0937}},"{\"gid\":69,\"fontFamily\":\"Lato\",\"fontSubfamily\":\"Regular\",\"fontSource\":\"build-in\"}":{"dPath":"M1.93 0L1.93 -18.71L4.2 -18.71L4.2 -11.01Q5 -11.94 6.04 -12.5Q7.07 -13.07 8.41 -13.07Q9.53 -13.07 10.43 -12.65Q11.33 -12.23 11.96 -11.4Q12.6 -10.57 12.94 -9.34Q13.28 -8.12 13.28 -6.52Q13.28 -5.09 12.9 -3.87Q12.52 -2.64 11.8 -1.75Q11.09 -0.85 10.05 -0.34Q9.02 0.18 7.72 0.18Q6.48 0.18 5.61 -0.3Q4.74 -0.79 4.09 -1.65L3.98 -0.48Q3.87 0 3.39 0ZM7.67 -11.26Q6.57 -11.26 5.73 -10.76Q4.9 -10.25 4.2 -9.32L4.2 -3.1Q4.81 -2.26 5.56 -1.92Q6.3 -1.57 7.21 -1.57Q9.02 -1.57 9.98 -2.86Q10.95 -4.14 10.95 -6.52Q10.95 -7.77 10.73 -8.67Q10.5 -9.58 10.08 -10.15Q9.66 -10.73 9.06 -11Q8.45 -11.26 7.67 -11.26Z","advanceWidth":14.198599999999999,"advanceHeight":25.4,"leftBearing":1.9304,"topBearing":1.7399,"bbox":{"minX":1.9304,"minY":-0.17779999999999999,"maxX":13.2842,"maxY":18.7071}},"{\"gid\":70,\"fontFamily\":\"Lato\",\"fontSubfamily\":\"Regular\",\"fontSource\":\"build-in\"}":{"dPath":"M10.63 -10.58Q10.53 -10.44 10.43 -10.36Q10.33 -10.29 10.13 -10.29Q9.94 -10.29 9.72 -10.45Q9.5 -10.6 9.16 -10.79Q8.81 -10.99 8.32 -11.14Q7.84 -11.3 7.12 -11.3Q6.18 -11.3 5.46 -10.97Q4.74 -10.63 4.25 -9.99Q3.76 -9.36 3.51 -8.46Q3.26 -7.56 3.26 -6.44Q3.26 -5.27 3.53 -4.36Q3.8 -3.45 4.28 -2.84Q4.76 -2.22 5.45 -1.9Q6.15 -1.57 7.01 -1.57Q7.84 -1.57 8.37 -1.77Q8.9 -1.97 9.26 -2.21Q9.61 -2.45 9.84 -2.65Q10.07 -2.84 10.3 -2.84Q10.59 -2.84 10.73 -2.63L11.37 -1.8Q10.53 -0.77 9.27 -0.3Q8.01 0.18 6.62 0.18Q5.41 0.18 4.38 -0.27Q3.34 -0.71 2.58 -1.56Q1.82 -2.4 1.38 -3.63Q0.94 -4.86 0.94 -6.44Q0.94 -7.87 1.34 -9.09Q1.74 -10.31 2.51 -11.2Q3.28 -12.08 4.41 -12.57Q5.54 -13.07 7 -13.07Q8.34 -13.07 9.39 -12.63Q10.43 -12.19 11.23 -11.39Z","advanceWidth":11.861799999999999,"advanceHeight":25.4,"leftBearing":0.9398,"topBearing":7.378699999999999,"bbox":{"minX":0.9398,"minY":-0.17779999999999999,"maxX":11.3665,"maxY":13.068299999999999}},"{\"gid\":71,\"fontFamily\":\"Lato\",\"fontSubfamily\":\"Regular\",\"fontSource\":\"build-in\"}":{"dPath":"M10.91 0Q10.43 0 10.3 -0.47L10.1 -2.03Q9.27 -1.03 8.21 -0.43Q7.15 0.18 5.78 0.18Q4.67 0.18 3.77 -0.25Q2.87 -0.67 2.24 -1.5Q1.6 -2.32 1.26 -3.56Q0.91 -4.79 0.91 -6.39Q0.91 -7.81 1.3 -9.04Q1.68 -10.26 2.39 -11.16Q3.11 -12.06 4.14 -12.58Q5.17 -13.09 6.48 -13.09Q7.66 -13.09 8.5 -12.69Q9.33 -12.29 9.99 -11.57L9.99 -18.71L12.26 -18.71L12.26 0ZM6.53 -1.65Q7.63 -1.65 8.46 -2.16Q9.3 -2.67 9.99 -3.59L9.99 -9.82Q9.37 -10.66 8.63 -10.99Q7.89 -11.33 6.99 -11.33Q5.18 -11.33 4.22 -10.05Q3.25 -8.76 3.25 -6.39Q3.25 -5.13 3.47 -4.24Q3.68 -3.34 4.1 -2.76Q4.52 -2.18 5.13 -1.92Q5.74 -1.65 6.53 -1.65Z","advanceWidth":14.198599999999999,"advanceHeight":25.4,"leftBearing":0.9144,"topBearing":1.7399,"bbox":{"minX":0.9144,"minY":-0.17779999999999999,"maxX":12.2555,"maxY":18.7071}},"{\"gid\":72,\"fontFamily\":\"Lato\",\"fontSubfamily\":\"Regular\",\"fontSource\":\"build-in\"}":{"dPath":"M6.95 -13.07Q8.1 -13.07 9.08 -12.68Q10.06 -12.29 10.77 -11.56Q11.48 -10.83 11.88 -9.76Q12.28 -8.69 12.28 -7.32Q12.28 -6.78 12.17 -6.6Q12.05 -6.43 11.73 -6.43L3.18 -6.43Q3.2 -5.21 3.51 -4.31Q3.81 -3.4 4.34 -2.8Q4.88 -2.2 5.61 -1.9Q6.35 -1.6 7.26 -1.6Q8.12 -1.6 8.73 -1.8Q9.35 -1.99 9.79 -2.22Q10.24 -2.45 10.53 -2.65Q10.83 -2.84 11.05 -2.84Q11.33 -2.84 11.48 -2.63L12.12 -1.8Q11.7 -1.3 11.11 -0.92Q10.53 -0.55 9.86 -0.3Q9.19 -0.06 8.48 0.06Q7.77 0.18 7.07 0.18Q5.74 0.18 4.62 -0.27Q3.49 -0.72 2.67 -1.59Q1.85 -2.46 1.4 -3.75Q0.94 -5.03 0.94 -6.69Q0.94 -8.04 1.35 -9.21Q1.77 -10.38 2.54 -11.23Q3.31 -12.09 4.43 -12.58Q5.55 -13.07 6.95 -13.07ZM7 -11.4Q5.36 -11.4 4.42 -10.46Q3.48 -9.51 3.25 -7.84L10.25 -7.84Q10.25 -8.62 10.03 -9.28Q9.82 -9.93 9.4 -10.41Q8.98 -10.88 8.38 -11.14Q7.77 -11.4 7 -11.4Z","advanceWidth":13.3096,"advanceHeight":25.4,"leftBearing":0.9398,"topBearing":7.378699999999999,"bbox":{"minX":0.9398,"minY":-0.17779999999999999,"maxX":12.280899999999999,"maxY":13.068299999999999}},"{\"gid\":73,\"fontFamily\":\"Lato\",\"fontSubfamily\":\"Regular\",\"fontSource\":\"build-in\"}":{"dPath":"M2.36 0L2.36 -10.93L0.94 -11.1Q0.67 -11.16 0.5 -11.3Q0.33 -11.43 0.33 -11.68L0.33 -12.61L2.36 -12.61L2.36 -13.86Q2.36 -14.96 2.67 -15.82Q2.98 -16.68 3.56 -17.27Q4.14 -17.86 4.95 -18.16Q5.77 -18.47 6.78 -18.47Q7.65 -18.47 8.38 -18.21L8.33 -17.08Q8.32 -16.83 8.12 -16.78Q7.91 -16.73 7.54 -16.73L7.15 -16.73Q6.57 -16.73 6.09 -16.57Q5.61 -16.42 5.27 -16.08Q4.93 -15.74 4.74 -15.18Q4.56 -14.62 4.56 -13.79L4.56 -12.61L8.28 -12.61L8.28 -10.97L4.64 -10.97L4.64 0Z","advanceWidth":8.5598,"advanceHeight":25.4,"leftBearing":0.3302,"topBearing":1.9811999999999999,"bbox":{"minX":0.3302,"minY":0,"maxX":8.382,"maxY":18.465799999999998}},"{\"gid\":74,\"fontFamily\":\"Lato\",\"fontSubfamily\":\"Regular\",\"fontSource\":\"build-in\"}":{"dPath":"M6.18 -13.08Q7.02 -13.08 7.75 -12.9Q8.48 -12.71 9.08 -12.36L12.57 -12.36L12.57 -11.52Q12.57 -11.1 12.04 -10.99L10.58 -10.78Q11.01 -9.96 11.01 -8.94Q11.01 -8 10.65 -7.23Q10.29 -6.46 9.65 -5.92Q9 -5.37 8.12 -5.08Q7.24 -4.79 6.18 -4.79Q5.28 -4.79 4.48 -5Q4.08 -4.75 3.87 -4.46Q3.66 -4.17 3.66 -3.89Q3.66 -3.43 4.03 -3.19Q4.39 -2.96 5 -2.86Q5.61 -2.76 6.39 -2.73Q7.16 -2.71 7.97 -2.65Q8.78 -2.59 9.55 -2.45Q10.33 -2.31 10.93 -1.99Q11.54 -1.68 11.91 -1.12Q12.28 -0.56 12.28 0.33Q12.28 1.16 11.87 1.93Q11.46 2.71 10.68 3.31Q9.91 3.91 8.79 4.27Q7.67 4.64 6.26 4.64Q4.85 4.64 3.79 4.36Q2.73 4.08 2.03 3.61Q1.33 3.14 0.98 2.52Q0.64 1.91 0.64 1.23Q0.64 0.28 1.24 -0.39Q1.84 -1.05 2.9 -1.45Q2.35 -1.7 2.03 -2.13Q1.7 -2.55 1.7 -3.26Q1.7 -3.54 1.8 -3.84Q1.91 -4.14 2.11 -4.43Q2.32 -4.72 2.63 -4.99Q2.93 -5.26 3.34 -5.46Q2.39 -5.99 1.85 -6.88Q1.31 -7.76 1.31 -8.94Q1.31 -9.88 1.67 -10.65Q2.03 -11.42 2.68 -11.96Q3.33 -12.5 4.22 -12.79Q5.12 -13.08 6.18 -13.08ZM10.2 0.7Q10.2 0.22 9.93 -0.08Q9.66 -0.37 9.21 -0.53Q8.75 -0.69 8.15 -0.76Q7.56 -0.84 6.9 -0.87Q6.24 -0.9 5.55 -0.94Q4.86 -0.98 4.24 -1.08Q3.52 -0.74 3.07 -0.24Q2.62 0.25 2.62 0.94Q2.62 1.37 2.84 1.75Q3.06 2.12 3.52 2.39Q3.98 2.67 4.67 2.83Q5.36 2.98 6.3 2.98Q7.21 2.98 7.94 2.82Q8.66 2.65 9.16 2.35Q9.66 2.04 9.93 1.63Q10.2 1.21 10.2 0.7ZM6.18 -6.29Q6.87 -6.29 7.4 -6.48Q7.92 -6.67 8.28 -7.01Q8.64 -7.35 8.81 -7.83Q8.99 -8.31 8.99 -8.88Q8.99 -10.06 8.27 -10.76Q7.56 -11.46 6.18 -11.46Q4.83 -11.46 4.11 -10.76Q3.39 -10.06 3.39 -8.88Q3.39 -8.31 3.58 -7.83Q3.76 -7.35 4.11 -7.01Q4.47 -6.67 4.99 -6.48Q5.51 -6.29 6.18 -6.29Z","advanceWidth":12.9794,"advanceHeight":25.4,"leftBearing":0.635,"topBearing":7.366,"bbox":{"minX":0.635,"minY":-4.6354999999999995,"maxX":12.572999999999999,"maxY":13.081}},"{\"gid\":75,\"fontFamily\":\"Lato\",\"fontSubfamily\":\"Regular\",\"fontSource\":\"build-in\"}":{"dPath":"M1.85 0L1.85 -18.71L4.11 -18.71L4.11 -11.14Q4.94 -12.01 5.94 -12.54Q6.95 -13.07 8.25 -13.07Q9.31 -13.07 10.12 -12.72Q10.92 -12.37 11.46 -11.73Q12 -11.09 12.28 -10.19Q12.56 -9.28 12.56 -8.19L12.56 0L10.3 0L10.3 -8.19Q10.3 -9.65 9.63 -10.46Q8.97 -11.26 7.59 -11.26Q6.59 -11.26 5.72 -10.78Q4.85 -10.3 4.11 -9.47L4.11 0Z","advanceWidth":14.122399999999999,"advanceHeight":25.4,"leftBearing":1.8541999999999998,"topBearing":1.7399,"bbox":{"minX":1.8541999999999998,"minY":0,"maxX":12.5603,"maxY":18.7071}},"{\"gid\":76,\"fontFamily\":\"Lato\",\"fontSubfamily\":\"Regular\",\"fontSource\":\"build-in\"}":{"dPath":"M4.37 -12.87L4.37 0L2.11 0L2.11 -12.87ZM4.88 -16.9Q4.88 -16.57 4.74 -16.29Q4.61 -16 4.39 -15.78Q4.17 -15.56 3.87 -15.43Q3.58 -15.3 3.25 -15.3Q2.92 -15.3 2.64 -15.43Q2.35 -15.56 2.13 -15.78Q1.91 -16 1.78 -16.29Q1.65 -16.57 1.65 -16.9Q1.65 -17.23 1.78 -17.53Q1.91 -17.83 2.13 -18.05Q2.35 -18.28 2.64 -18.4Q2.92 -18.53 3.25 -18.53Q3.58 -18.53 3.87 -18.4Q4.17 -18.28 4.39 -18.05Q4.61 -17.83 4.74 -17.53Q4.88 -17.23 4.88 -16.9Z","advanceWidth":6.5024,"advanceHeight":25.4,"leftBearing":1.651,"topBearing":1.9177,"bbox":{"minX":1.651,"minY":0,"maxX":4.876799999999999,"maxY":18.5293}},"{\"gid\":77,\"fontFamily\":\"Lato\",\"fontSubfamily\":\"Regular\",\"fontSource\":\"build-in\"}":{"dPath":"M4.37 -12.87L4.37 0.95Q4.37 1.73 4.17 2.39Q3.96 3.06 3.52 3.56Q3.09 4.05 2.39 4.34Q1.7 4.62 0.74 4.62Q0.32 4.62 -0.03 4.56Q-0.37 4.5 -0.71 4.37L-0.61 3.15Q-0.58 2.98 -0.5 2.94Q-0.41 2.9 -0.22 2.9Q-0.11 2.9 0 2.9Q0.11 2.91 0.28 2.91Q1.27 2.91 1.69 2.44Q2.11 1.98 2.11 0.95L2.11 -12.87ZM4.88 -16.9Q4.88 -16.57 4.74 -16.29Q4.61 -16 4.39 -15.78Q4.17 -15.56 3.87 -15.43Q3.58 -15.3 3.25 -15.3Q2.92 -15.3 2.64 -15.43Q2.35 -15.56 2.13 -15.78Q1.91 -16 1.78 -16.29Q1.65 -16.57 1.65 -16.9Q1.65 -17.23 1.78 -17.53Q1.91 -17.83 2.13 -18.05Q2.35 -18.28 2.64 -18.4Q2.92 -18.53 3.25 -18.53Q3.58 -18.53 3.87 -18.4Q4.17 -18.28 4.39 -18.05Q4.61 -17.83 4.74 -17.53Q4.88 -17.23 4.88 -16.9Z","advanceWidth":6.4516,"advanceHeight":25.4,"leftBearing":-0.7111999999999999,"topBearing":1.9177,"bbox":{"minX":-0.7111999999999999,"minY":-4.6228,"maxX":4.876799999999999,"maxY":18.5293}},"{\"gid\":78,\"fontFamily\":\"Lato\",\"fontSubfamily\":\"Regular\",\"fontSource\":\"build-in\"}":{"dPath":"M4.2 -18.71L4.2 -7.7L4.79 -7.7Q5.04 -7.7 5.21 -7.77Q5.37 -7.84 5.58 -8.05L9.64 -12.41Q9.83 -12.61 10.02 -12.74Q10.21 -12.87 10.53 -12.87L12.59 -12.87L7.85 -7.82Q7.67 -7.61 7.5 -7.44Q7.33 -7.28 7.11 -7.15Q7.34 -7 7.52 -6.8Q7.71 -6.6 7.87 -6.35L12.9 0L10.87 0Q10.59 0 10.39 -0.11Q10.2 -0.22 10.02 -0.44L5.79 -5.71Q5.6 -5.98 5.41 -6.06Q5.22 -6.15 4.84 -6.15L4.2 -6.15L4.2 0L1.93 0L1.93 -18.71Z","advanceWidth":13.3096,"advanceHeight":25.4,"leftBearing":1.9304,"topBearing":1.7399,"bbox":{"minX":1.9304,"minY":0,"maxX":12.9032,"maxY":18.7071}},"{\"gid\":79,\"fontFamily\":\"Lato\",\"fontSubfamily\":\"Regular\",\"fontSource\":\"build-in\"}":{"dPath":"M4.37 -18.71L4.37 0L2.11 0L2.11 -18.71Z","advanceWidth":6.5024,"advanceHeight":25.4,"leftBearing":2.1082,"topBearing":1.7399,"bbox":{"minX":2.1082,"minY":0,"maxX":4.3688,"maxY":18.7071}},"{\"gid\":80,\"fontFamily\":\"Lato\",\"fontSubfamily\":\"Regular\",\"fontSource\":\"build-in\"}":{"dPath":"M1.85 0L1.85 -12.87L3.2 -12.87Q3.68 -12.87 3.81 -12.4L3.98 -11.07Q4.69 -11.95 5.57 -12.51Q6.45 -13.07 7.62 -13.07Q8.93 -13.07 9.73 -12.34Q10.54 -11.62 10.9 -10.39Q11.16 -11.09 11.6 -11.6Q12.04 -12.1 12.59 -12.43Q13.13 -12.76 13.75 -12.92Q14.36 -13.07 15 -13.07Q16.01 -13.07 16.81 -12.74Q17.6 -12.42 18.15 -11.8Q18.71 -11.18 19 -10.27Q19.29 -9.36 19.29 -8.19L19.29 0L17.03 0L17.03 -8.19Q17.03 -9.7 16.37 -10.48Q15.71 -11.26 14.45 -11.26Q13.89 -11.26 13.39 -11.07Q12.89 -10.87 12.51 -10.49Q12.13 -10.11 11.91 -9.53Q11.68 -8.95 11.68 -8.19L11.68 0L9.42 0L9.42 -8.19Q9.42 -9.74 8.8 -10.5Q8.18 -11.26 6.99 -11.26Q6.15 -11.26 5.43 -10.81Q4.71 -10.36 4.11 -9.59L4.11 0Z","advanceWidth":20.8534,"advanceHeight":25.4,"leftBearing":1.8541999999999998,"topBearing":7.378699999999999,"bbox":{"minX":1.8541999999999998,"minY":0,"maxX":19.2913,"maxY":13.068299999999999}},"{\"gid\":81,\"fontFamily\":\"Lato\",\"fontSubfamily\":\"Regular\",\"fontSource\":\"build-in\"}":{"dPath":"M1.85 0L1.85 -12.87L3.2 -12.87Q3.68 -12.87 3.81 -12.4L3.99 -11Q4.83 -11.93 5.86 -12.5Q6.9 -13.07 8.25 -13.07Q9.31 -13.07 10.12 -12.72Q10.92 -12.37 11.46 -11.73Q12 -11.09 12.28 -10.19Q12.56 -9.28 12.56 -8.19L12.56 0L10.3 0L10.3 -8.19Q10.3 -9.65 9.63 -10.46Q8.97 -11.26 7.59 -11.26Q6.59 -11.26 5.72 -10.78Q4.85 -10.3 4.11 -9.47L4.11 0Z","advanceWidth":14.122399999999999,"advanceHeight":25.4,"leftBearing":1.8541999999999998,"topBearing":7.378699999999999,"bbox":{"minX":1.8541999999999998,"minY":0,"maxX":12.5603,"maxY":13.068299999999999}},"{\"gid\":82,\"fontFamily\":\"Lato\",\"fontSubfamily\":\"Regular\",\"fontSource\":\"build-in\"}":{"dPath":"M7.06 -13.07Q8.47 -13.07 9.61 -12.6Q10.74 -12.13 11.54 -11.26Q12.33 -10.4 12.76 -9.18Q13.18 -7.95 13.18 -6.44Q13.18 -4.91 12.76 -3.7Q12.33 -2.48 11.54 -1.61Q10.74 -0.75 9.61 -0.29Q8.47 0.18 7.06 0.18Q5.65 0.18 4.51 -0.29Q3.38 -0.75 2.58 -1.61Q1.78 -2.48 1.35 -3.7Q0.91 -4.91 0.91 -6.44Q0.91 -7.95 1.35 -9.18Q1.78 -10.4 2.58 -11.26Q3.38 -12.13 4.51 -12.6Q5.65 -13.07 7.06 -13.07ZM7.06 -1.59Q8.97 -1.59 9.91 -2.86Q10.85 -4.14 10.85 -6.43Q10.85 -8.72 9.91 -10.01Q8.97 -11.29 7.06 -11.29Q6.1 -11.29 5.38 -10.96Q4.67 -10.63 4.2 -10.01Q3.72 -9.39 3.49 -8.48Q3.25 -7.57 3.25 -6.43Q3.25 -5.28 3.49 -4.38Q3.72 -3.48 4.2 -2.86Q4.67 -2.25 5.38 -1.92Q6.1 -1.59 7.06 -1.59Z","advanceWidth":14.122399999999999,"advanceHeight":25.4,"leftBearing":0.9144,"topBearing":7.378699999999999,"bbox":{"minX":0.9144,"minY":-0.17779999999999999,"maxX":13.182599999999999,"maxY":13.068299999999999}},"{\"gid\":83,\"fontFamily\":\"Lato\",\"fontSubfamily\":\"Regular\",\"fontSource\":\"build-in\"}":{"dPath":"M1.85 4.36L1.85 -12.87L3.2 -12.87Q3.68 -12.87 3.81 -12.4L4 -10.87Q4.83 -11.87 5.89 -12.48Q6.95 -13.09 8.33 -13.09Q9.44 -13.09 10.34 -12.67Q11.24 -12.24 11.87 -11.41Q12.51 -10.58 12.85 -9.35Q13.2 -8.12 13.2 -6.52Q13.2 -5.09 12.81 -3.87Q12.43 -2.64 11.72 -1.75Q11.01 -0.85 9.98 -0.34Q8.94 0.18 7.65 0.18Q6.45 0.18 5.61 -0.22Q4.76 -0.61 4.11 -1.33L4.11 4.36ZM7.58 -11.26Q6.48 -11.26 5.65 -10.76Q4.81 -10.25 4.11 -9.32L4.11 -3.1Q4.74 -2.26 5.48 -1.92Q6.22 -1.57 7.14 -1.57Q8.93 -1.57 9.89 -2.86Q10.86 -4.14 10.86 -6.52Q10.86 -7.77 10.64 -8.67Q10.41 -9.58 9.99 -10.15Q9.58 -10.73 8.97 -11Q8.36 -11.26 7.58 -11.26Z","advanceWidth":14.0208,"advanceHeight":25.4,"leftBearing":1.8541999999999998,"topBearing":7.3533,"bbox":{"minX":1.8541999999999998,"minY":-4.3561,"maxX":13.1953,"maxY":13.0937}},"{\"gid\":84,\"fontFamily\":\"Lato\",\"fontSubfamily\":\"Regular\",\"fontSource\":\"build-in\"}":{"dPath":"M12.26 -12.87L12.26 4.36L9.99 4.36L9.99 -1.9Q9.18 -0.97 8.15 -0.39Q7.11 0.18 5.78 0.18Q4.67 0.18 3.77 -0.25Q2.87 -0.67 2.24 -1.5Q1.6 -2.32 1.26 -3.56Q0.91 -4.79 0.91 -6.39Q0.91 -7.81 1.3 -9.04Q1.68 -10.26 2.39 -11.16Q3.11 -12.06 4.14 -12.58Q5.17 -13.09 6.48 -13.09Q7.72 -13.09 8.59 -12.65Q9.46 -12.2 10.15 -11.39L10.3 -12.4Q10.43 -12.87 10.91 -12.87ZM6.53 -1.65Q7.63 -1.65 8.46 -2.16Q9.3 -2.67 9.99 -3.59L9.99 -9.82Q9.39 -10.63 8.64 -10.98Q7.89 -11.33 6.99 -11.33Q5.18 -11.33 4.22 -10.05Q3.25 -8.76 3.25 -6.39Q3.25 -5.13 3.47 -4.24Q3.68 -3.34 4.1 -2.76Q4.52 -2.18 5.13 -1.92Q5.74 -1.65 6.53 -1.65Z","advanceWidth":14.198599999999999,"advanceHeight":25.4,"leftBearing":0.9144,"topBearing":7.3533,"bbox":{"minX":0.9144,"minY":-4.3561,"maxX":12.2555,"maxY":13.0937}},"{\"gid\":85,\"fontFamily\":\"Lato\",\"fontSubfamily\":\"Regular\",\"fontSource\":\"build-in\"}":{"dPath":"M1.85 0L1.85 -12.87L3.15 -12.87Q3.52 -12.87 3.66 -12.73Q3.8 -12.59 3.85 -12.24L4 -10.24Q4.66 -11.58 5.63 -12.34Q6.6 -13.09 7.91 -13.09Q8.45 -13.09 8.88 -12.97Q9.31 -12.85 9.68 -12.64L9.39 -10.95Q9.3 -10.63 8.99 -10.63Q8.81 -10.63 8.45 -10.75Q8.08 -10.87 7.42 -10.87Q6.24 -10.87 5.44 -10.19Q4.65 -9.5 4.11 -8.19L4.11 0Z","advanceWidth":10.2362,"advanceHeight":25.4,"leftBearing":1.8541999999999998,"topBearing":7.3533,"bbox":{"minX":1.8541999999999998,"minY":0,"maxX":9.6774,"maxY":13.0937}},"{\"gid\":86,\"fontFamily\":\"Lato\",\"fontSubfamily\":\"Regular\",\"fontSource\":\"build-in\"}":{"dPath":"M9.22 -10.74Q9.07 -10.46 8.75 -10.46Q8.56 -10.46 8.32 -10.6Q8.08 -10.74 7.73 -10.92Q7.38 -11.09 6.9 -11.23Q6.41 -11.38 5.75 -11.38Q5.18 -11.38 4.72 -11.23Q4.27 -11.09 3.94 -10.83Q3.62 -10.58 3.45 -10.24Q3.28 -9.91 3.28 -9.51Q3.28 -9.02 3.56 -8.69Q3.85 -8.36 4.32 -8.12Q4.79 -7.87 5.38 -7.69Q5.98 -7.51 6.61 -7.3Q7.24 -7.09 7.84 -6.83Q8.43 -6.58 8.9 -6.2Q9.37 -5.82 9.66 -5.26Q9.94 -4.71 9.94 -3.94Q9.94 -3.05 9.63 -2.29Q9.31 -1.54 8.69 -0.98Q8.06 -0.43 7.16 -0.11Q6.26 0.2 5.08 0.2Q3.73 0.2 2.64 -0.23Q1.55 -0.67 0.79 -1.36L1.32 -2.22Q1.42 -2.39 1.56 -2.48Q1.7 -2.57 1.93 -2.57Q2.16 -2.57 2.41 -2.39Q2.67 -2.21 3.03 -1.99Q3.39 -1.78 3.91 -1.6Q4.42 -1.42 5.19 -1.42Q5.85 -1.42 6.35 -1.59Q6.85 -1.77 7.18 -2.06Q7.51 -2.35 7.66 -2.73Q7.82 -3.11 7.82 -3.54Q7.82 -4.08 7.54 -4.43Q7.25 -4.78 6.78 -5.02Q6.31 -5.27 5.71 -5.45Q5.11 -5.64 4.48 -5.84Q3.85 -6.05 3.24 -6.31Q2.64 -6.57 2.17 -6.96Q1.7 -7.35 1.42 -7.93Q1.13 -8.51 1.13 -9.33Q1.13 -10.07 1.44 -10.75Q1.74 -11.43 2.32 -11.94Q2.91 -12.46 3.76 -12.76Q4.61 -13.07 5.7 -13.07Q6.97 -13.07 7.98 -12.67Q8.99 -12.27 9.73 -11.57Z","advanceWidth":11.0236,"advanceHeight":25.4,"leftBearing":0.7874,"topBearing":7.378699999999999,"bbox":{"minX":0.7874,"minY":-0.2032,"maxX":9.944099999999999,"maxY":13.068299999999999}},"{\"gid\":87,\"fontFamily\":\"Lato\",\"fontSubfamily\":\"Regular\",\"fontSource\":\"build-in\"}":{"dPath":"M5.75 0.2Q4.23 0.2 3.41 -0.65Q2.59 -1.5 2.59 -3.1L2.59 -10.97L1.04 -10.97Q0.84 -10.97 0.7 -11.09Q0.56 -11.21 0.56 -11.47L0.56 -12.37L2.67 -12.64L3.19 -16.61Q3.21 -16.8 3.35 -16.92Q3.49 -17.04 3.71 -17.04L4.85 -17.04L4.85 -12.61L8.53 -12.61L8.53 -10.97L4.85 -10.97L4.85 -3.25Q4.85 -2.44 5.25 -2.04Q5.64 -1.65 6.26 -1.65Q6.62 -1.65 6.88 -1.75Q7.14 -1.84 7.33 -1.96Q7.52 -2.07 7.65 -2.17Q7.79 -2.26 7.89 -2.26Q8.06 -2.26 8.2 -2.04L8.86 -0.97Q8.28 -0.42 7.45 -0.11Q6.63 0.2 5.75 0.2Z","advanceWidth":9.4742,"advanceHeight":25.4,"leftBearing":0.5588,"topBearing":3.4036,"bbox":{"minX":0.5588,"minY":-0.2032,"maxX":8.8646,"maxY":17.0434}},"{\"gid\":88,\"fontFamily\":\"Lato\",\"fontSubfamily\":\"Regular\",\"fontSource\":\"build-in\"}":{"dPath":"M3.81 -12.87L3.81 -4.66Q3.81 -3.2 4.48 -2.4Q5.16 -1.6 6.52 -1.6Q7.51 -1.6 8.38 -2.07Q9.26 -2.54 9.99 -3.38L9.99 -12.87L12.26 -12.87L12.26 0L10.91 0Q10.43 0 10.3 -0.47L10.12 -1.85Q9.28 -0.93 8.24 -0.36Q7.2 0.2 5.85 0.2Q4.8 0.2 3.99 -0.15Q3.19 -0.5 2.64 -1.13Q2.1 -1.77 1.82 -2.67Q1.55 -3.57 1.55 -4.66L1.55 -12.87Z","advanceWidth":14.122399999999999,"advanceHeight":25.4,"leftBearing":1.5493999999999999,"topBearing":7.5819,"bbox":{"minX":1.5493999999999999,"minY":-0.2032,"maxX":12.2555,"maxY":12.8651}},"{\"gid\":89,\"fontFamily\":\"Lato\",\"fontSubfamily\":\"Regular\",\"fontSource\":\"build-in\"}":{"dPath":"M0.23 -12.87L2.08 -12.87Q2.35 -12.87 2.53 -12.73Q2.71 -12.59 2.78 -12.4L6.05 -4.11Q6.22 -3.66 6.32 -3.2Q6.43 -2.74 6.52 -2.3Q6.62 -2.74 6.73 -3.2Q6.85 -3.66 7.02 -4.11L10.33 -12.4Q10.4 -12.6 10.57 -12.73Q10.74 -12.87 11 -12.87L12.76 -12.87L7.52 0L5.47 0Z","advanceWidth":13.0048,"advanceHeight":25.4,"leftBearing":0.2286,"topBearing":7.5819,"bbox":{"minX":0.2286,"minY":0,"maxX":12.763499999999999,"maxY":12.8651}},"{\"gid\":90,\"fontFamily\":\"Lato\",\"fontSubfamily\":\"Regular\",\"fontSource\":\"build-in\"}":{"dPath":"M0.18 -12.87L1.96 -12.87Q2.24 -12.87 2.41 -12.73Q2.59 -12.59 2.65 -12.4L5.12 -4.11Q5.22 -3.66 5.31 -3.23Q5.4 -2.81 5.46 -2.37Q5.56 -2.81 5.69 -3.23Q5.82 -3.66 5.96 -4.11L8.67 -12.45Q8.74 -12.64 8.9 -12.76Q9.06 -12.89 9.3 -12.89L10.27 -12.89Q10.53 -12.89 10.69 -12.76Q10.86 -12.64 10.92 -12.45L13.58 -4.11Q13.72 -3.67 13.82 -3.24Q13.93 -2.81 14.03 -2.39Q14.1 -2.81 14.2 -3.26Q14.3 -3.72 14.41 -4.11L16.93 -12.4Q16.99 -12.6 17.17 -12.73Q17.35 -12.87 17.59 -12.87L19.29 -12.87L15.13 0L13.34 0Q13 0 12.88 -0.43L10.03 -9.16Q9.93 -9.45 9.87 -9.75Q9.8 -10.05 9.74 -10.34Q9.68 -10.05 9.61 -9.74Q9.55 -9.44 9.45 -9.14L6.57 -0.43Q6.43 0 6.05 0L4.34 0Z","advanceWidth":19.4564,"advanceHeight":25.4,"leftBearing":0.17779999999999999,"topBearing":7.5565,"bbox":{"minX":0.17779999999999999,"minY":0,"maxX":19.2913,"maxY":12.8905}},"{\"gid\":91,\"fontFamily\":\"Lato\",\"fontSubfamily\":\"Regular\",\"fontSource\":\"build-in\"}":{"dPath":"M4.86 -6.59L0.53 -12.87L2.71 -12.87Q2.98 -12.87 3.11 -12.78Q3.24 -12.69 3.34 -12.52L6.49 -7.7Q6.6 -8.05 6.82 -8.41L9.59 -12.47Q9.72 -12.65 9.84 -12.76Q9.97 -12.87 10.16 -12.87L12.24 -12.87L7.91 -6.72L12.42 0L10.25 0Q9.97 0 9.81 -0.15Q9.65 -0.29 9.55 -0.47L6.31 -5.51Q6.22 -5.14 6.05 -4.85L3.05 -0.47Q2.92 -0.29 2.77 -0.15Q2.63 0 2.37 0L0.36 0Z","advanceWidth":12.801599999999999,"advanceHeight":25.4,"leftBearing":0.35559999999999997,"topBearing":7.5819,"bbox":{"minX":0.35559999999999997,"minY":0,"maxX":12.4206,"maxY":12.8651}},"{\"gid\":92,\"fontFamily\":\"Lato\",\"fontSubfamily\":\"Regular\",\"fontSource\":\"build-in\"}":{"dPath":"M5.63 3.8Q5.51 4.05 5.34 4.2Q5.17 4.36 4.81 4.36L3.14 4.36L5.49 -0.75L0.18 -12.87L2.13 -12.87Q2.43 -12.87 2.59 -12.72Q2.76 -12.57 2.83 -12.4L6.27 -4.29Q6.39 -4.01 6.47 -3.73Q6.55 -3.45 6.62 -3.16Q6.71 -3.45 6.79 -3.73Q6.88 -4.01 7 -4.31L10.34 -12.4Q10.41 -12.6 10.6 -12.73Q10.78 -12.87 11 -12.87L12.8 -12.87Z","advanceWidth":13.0048,"advanceHeight":25.4,"leftBearing":0.17779999999999999,"topBearing":7.5819,"bbox":{"minX":0.17779999999999999,"minY":-4.3561,"maxX":12.801599999999999,"maxY":12.8651}},"{\"gid\":93,\"fontFamily\":\"Lato\",\"fontSubfamily\":\"Regular\",\"fontSource\":\"build-in\"}":{"dPath":"M10.83 -11.9Q10.83 -11.66 10.74 -11.44Q10.66 -11.21 10.52 -11.04L3.56 -1.77L10.58 -1.77L10.58 0L0.89 0L0.89 -0.94Q0.89 -1.1 0.97 -1.33Q1.05 -1.55 1.21 -1.75L8.2 -11.09L1.28 -11.09L1.28 -12.87L10.83 -12.87Z","advanceWidth":11.7348,"advanceHeight":25.4,"leftBearing":0.889,"topBearing":7.5819,"bbox":{"minX":0.889,"minY":0,"maxX":10.8331,"maxY":12.8651}},"{\"gid\":36,\"fontFamily\":\"Lato\",\"fontSubfamily\":\"Regular\",\"fontSource\":\"build-in\"}":{"dPath":"M17.18 0L15.28 0Q14.95 0 14.74 -0.17Q14.54 -0.33 14.44 -0.58L12.74 -4.98L4.57 -4.98L2.87 -0.58Q2.78 -0.36 2.57 -0.18Q2.35 0 2.03 0L0.13 0L7.4 -18.2L9.91 -18.2ZM5.26 -6.76L12.05 -6.76L9.19 -14.16Q8.92 -14.85 8.65 -15.87Q8.51 -15.35 8.38 -14.92Q8.24 -14.48 8.12 -14.15Z","advanceWidth":17.272,"advanceHeight":25.4,"leftBearing":0.127,"topBearing":2.2479,"bbox":{"minX":0.127,"minY":0,"maxX":17.1831,"maxY":18.199099999999998}},"{\"gid\":37,\"fontFamily\":\"Lato\",\"fontSubfamily\":\"Regular\",\"fontSource\":\"build-in\"}":{"dPath":"M2.21 0L2.21 -18.2L8.01 -18.2Q9.69 -18.2 10.9 -17.87Q12.12 -17.54 12.9 -16.93Q13.68 -16.32 14.05 -15.44Q14.43 -14.55 14.43 -13.45Q14.43 -12.78 14.22 -12.15Q14.01 -11.53 13.58 -11Q13.16 -10.46 12.52 -10.05Q11.87 -9.63 11.01 -9.36Q13 -8.97 14.02 -7.92Q15.04 -6.88 15.04 -5.18Q15.04 -4.03 14.61 -3.07Q14.19 -2.12 13.37 -1.44Q12.55 -0.75 11.36 -0.37Q10.17 0 8.65 0ZM4.67 -8.29L4.67 -1.96L8.61 -1.96Q9.66 -1.96 10.42 -2.2Q11.18 -2.44 11.66 -2.88Q12.15 -3.31 12.38 -3.92Q12.61 -4.52 12.61 -5.25Q12.61 -6.65 11.61 -7.47Q10.62 -8.29 8.6 -8.29ZM4.67 -10.05L7.92 -10.05Q8.97 -10.05 9.73 -10.27Q10.49 -10.5 10.99 -10.91Q11.49 -11.32 11.73 -11.89Q11.98 -12.47 11.98 -13.16Q11.98 -14.76 11.01 -15.51Q10.05 -16.26 8.01 -16.26L4.67 -16.26Z","advanceWidth":16.433799999999998,"advanceHeight":25.4,"leftBearing":2.2098,"topBearing":2.2479,"bbox":{"minX":2.2098,"minY":0,"maxX":15.0368,"maxY":18.199099999999998}},"{\"gid\":38,\"fontFamily\":\"Lato\",\"fontSubfamily\":\"Regular\",\"fontSource\":\"build-in\"}":{"dPath":"M15.04 -3.76Q15.24 -3.76 15.41 -3.59L16.37 -2.54Q15.25 -1.24 13.66 -0.52Q12.07 0.2 9.82 0.2Q7.85 0.2 6.25 -0.48Q4.65 -1.16 3.52 -2.38Q2.39 -3.61 1.77 -5.32Q1.14 -7.04 1.14 -9.09Q1.14 -11.15 1.81 -12.87Q2.48 -14.58 3.68 -15.81Q4.89 -17.04 6.57 -17.72Q8.25 -18.4 10.29 -18.4Q12.29 -18.4 13.75 -17.78Q15.2 -17.16 16.33 -16.09L15.53 -14.96Q15.44 -14.83 15.33 -14.75Q15.21 -14.67 15 -14.67Q14.83 -14.67 14.65 -14.79Q14.47 -14.91 14.21 -15.09Q13.96 -15.27 13.61 -15.47Q13.27 -15.67 12.8 -15.85Q12.33 -16.03 11.71 -16.15Q11.09 -16.27 10.27 -16.27Q8.81 -16.27 7.6 -15.77Q6.39 -15.27 5.51 -14.34Q4.64 -13.41 4.15 -12.08Q3.66 -10.74 3.66 -9.09Q3.66 -7.39 4.15 -6.06Q4.64 -4.72 5.48 -3.8Q6.32 -2.88 7.48 -2.4Q8.64 -1.92 9.97 -1.92Q10.78 -1.92 11.43 -2.01Q12.08 -2.11 12.63 -2.31Q13.18 -2.51 13.66 -2.83Q14.14 -3.14 14.62 -3.57Q14.83 -3.76 15.04 -3.76Z","advanceWidth":17.399,"advanceHeight":25.4,"leftBearing":1.143,"topBearing":2.0446999999999997,"bbox":{"minX":1.143,"minY":-0.2032,"maxX":16.3703,"maxY":18.4023}},"{\"gid\":39,\"fontFamily\":\"Lato\",\"fontSubfamily\":\"Regular\",\"fontSource\":\"build-in\"}":{"dPath":"M17.98 -9.09Q17.98 -7.05 17.34 -5.37Q16.69 -3.7 15.51 -2.5Q14.33 -1.31 12.67 -0.65Q11.02 0 9.02 0L2.21 0L2.21 -18.2L9.02 -18.2Q11.02 -18.2 12.67 -17.55Q14.33 -16.89 15.51 -15.69Q16.69 -14.49 17.34 -12.81Q17.98 -11.14 17.98 -9.09ZM15.46 -9.09Q15.46 -10.77 15 -12.09Q14.54 -13.41 13.7 -14.33Q12.87 -15.24 11.67 -15.72Q10.48 -16.21 9.02 -16.21L4.69 -16.21L4.69 -1.99L9.02 -1.99Q10.48 -1.99 11.67 -2.48Q12.87 -2.96 13.7 -3.87Q14.54 -4.78 15 -6.1Q15.46 -7.42 15.46 -9.09Z","advanceWidth":19.1262,"advanceHeight":25.4,"leftBearing":2.2098,"topBearing":2.2479,"bbox":{"minX":2.2098,"minY":0,"maxX":17.9832,"maxY":18.199099999999998}},"{\"gid\":40,\"fontFamily\":\"Lato\",\"fontSubfamily\":\"Regular\",\"fontSource\":\"build-in\"}":{"dPath":"M13.42 -18.2L13.42 -16.19L4.69 -16.19L4.69 -10.15L11.76 -10.15L11.76 -8.22L4.69 -8.22L4.69 -2.01L13.42 -2.01L13.42 0L2.21 0L2.21 -18.2Z","advanceWidth":14.757399999999999,"advanceHeight":25.4,"leftBearing":2.2098,"topBearing":2.2479,"bbox":{"minX":2.2098,"minY":0,"maxX":13.4239,"maxY":18.199099999999998}},"{\"gid\":41,\"fontFamily\":\"Lato\",\"fontSubfamily\":\"Regular\",\"fontSource\":\"build-in\"}":{"dPath":"M13.42 -18.2L13.42 -16.19L4.69 -16.19L4.69 -9.83L12.15 -9.83L12.15 -7.82L4.69 -7.82L4.69 0L2.21 0L2.21 -18.2Z","advanceWidth":14.3764,"advanceHeight":25.4,"leftBearing":2.2098,"topBearing":2.2479,"bbox":{"minX":2.2098,"minY":0,"maxX":13.4239,"maxY":18.199099999999998}},"{\"gid\":42,\"fontFamily\":\"Lato\",\"fontSubfamily\":\"Regular\",\"fontSource\":\"build-in\"}":{"dPath":"M10.33 -1.79Q11.06 -1.79 11.68 -1.86Q12.29 -1.93 12.84 -2.07Q13.39 -2.21 13.87 -2.41Q14.35 -2.6 14.83 -2.86L14.83 -6.87L12.01 -6.87Q11.77 -6.87 11.63 -7.01Q11.48 -7.15 11.48 -7.35L11.48 -8.75L17.07 -8.75L17.07 -1.77Q16.38 -1.27 15.64 -0.9Q14.9 -0.53 14.05 -0.29Q13.21 -0.04 12.24 0.08Q11.28 0.2 10.15 0.2Q8.17 0.2 6.52 -0.48Q4.86 -1.16 3.67 -2.38Q2.48 -3.61 1.81 -5.32Q1.14 -7.04 1.14 -9.09Q1.14 -11.18 1.8 -12.89Q2.45 -14.6 3.66 -15.83Q4.88 -17.06 6.6 -17.73Q8.32 -18.4 10.45 -18.4Q11.53 -18.4 12.46 -18.24Q13.39 -18.08 14.18 -17.79Q14.97 -17.49 15.65 -17.06Q16.32 -16.64 16.9 -16.1L16.21 -14.99Q15.99 -14.64 15.65 -14.64Q15.44 -14.64 15.2 -14.78Q14.88 -14.96 14.49 -15.21Q14.1 -15.47 13.53 -15.7Q12.97 -15.94 12.2 -16.1Q11.43 -16.27 10.38 -16.27Q8.84 -16.27 7.59 -15.77Q6.35 -15.27 5.47 -14.33Q4.6 -13.4 4.13 -12.07Q3.66 -10.74 3.66 -9.09Q3.66 -7.37 4.15 -6.01Q4.64 -4.66 5.52 -3.72Q6.41 -2.78 7.63 -2.29Q8.85 -1.79 10.33 -1.79Z","advanceWidth":18.6436,"advanceHeight":25.4,"leftBearing":1.143,"topBearing":2.0446999999999997,"bbox":{"minX":1.143,"minY":-0.2032,"maxX":17.0688,"maxY":18.4023}},"{\"gid\":43,\"fontFamily\":\"Lato\",\"fontSubfamily\":\"Regular\",\"fontSource\":\"build-in\"}":{"dPath":"M16.97 0L14.49 0L14.49 -8.28L4.69 -8.28L4.69 0L2.21 0L2.21 -18.2L4.69 -18.2L4.69 -10.08L14.49 -10.08L14.49 -18.2L16.97 -18.2Z","advanceWidth":19.2024,"advanceHeight":25.4,"leftBearing":2.2098,"topBearing":2.2479,"bbox":{"minX":2.2098,"minY":0,"maxX":16.9672,"maxY":18.199099999999998}},"{\"gid\":44,\"fontFamily\":\"Lato\",\"fontSubfamily\":\"Regular\",\"fontSource\":\"build-in\"}":{"dPath":"M5.13 0L2.67 0L2.67 -18.2L5.13 -18.2Z","advanceWidth":7.7978,"advanceHeight":25.4,"leftBearing":2.667,"topBearing":2.2479,"bbox":{"minX":2.667,"minY":0,"maxX":5.1308,"maxY":18.199099999999998}},"{\"gid\":45,\"fontFamily\":\"Lato\",\"fontSubfamily\":\"Regular\",\"fontSource\":\"build-in\"}":{"dPath":"M9.06 -6.29Q9.06 -4.76 8.68 -3.56Q8.31 -2.35 7.58 -1.52Q6.85 -0.69 5.78 -0.24Q4.71 0.2 3.33 0.2Q2.1 0.2 0.76 -0.15Q0.79 -0.52 0.83 -0.88Q0.86 -1.24 0.9 -1.6Q0.93 -1.82 1.06 -1.95Q1.19 -2.08 1.46 -2.08Q1.69 -2.08 2.07 -1.97Q2.45 -1.85 3.09 -1.85Q3.92 -1.85 4.58 -2.11Q5.23 -2.36 5.68 -2.9Q6.13 -3.43 6.37 -4.26Q6.6 -5.09 6.6 -6.24L6.6 -18.2L9.06 -18.2Z","advanceWidth":11.2776,"advanceHeight":25.4,"leftBearing":0.762,"topBearing":2.2479,"bbox":{"minX":0.762,"minY":-0.2032,"maxX":9.0551,"maxY":18.199099999999998}},"{\"gid\":46,\"fontFamily\":\"Lato\",\"fontSubfamily\":\"Regular\",\"fontSource\":\"build-in\"}":{"dPath":"M4.91 -10.22L5.84 -10.22Q6.32 -10.22 6.61 -10.34Q6.9 -10.46 7.15 -10.76L13.21 -17.61Q13.49 -17.93 13.75 -18.07Q14.01 -18.2 14.41 -18.2L16.51 -18.2L9.58 -10.36Q9.31 -10.07 9.07 -9.87Q8.84 -9.66 8.57 -9.54Q8.93 -9.42 9.19 -9.19Q9.46 -8.97 9.75 -8.62L16.99 0L14.86 0Q14.62 0 14.45 -0.04Q14.29 -0.08 14.17 -0.14Q14.05 -0.2 13.94 -0.3Q13.84 -0.41 13.74 -0.52L7.45 -7.75Q7.32 -7.9 7.19 -8.01Q7.07 -8.12 6.92 -8.19Q6.76 -8.27 6.55 -8.3Q6.34 -8.33 6.03 -8.33L4.91 -8.33L4.91 0L2.46 0L2.46 -18.2L4.91 -18.2Z","advanceWidth":17.2974,"advanceHeight":25.4,"leftBearing":2.4638,"topBearing":2.2479,"bbox":{"minX":2.4638,"minY":0,"maxX":16.9926,"maxY":18.199099999999998}},"{\"gid\":47,\"fontFamily\":\"Lato\",\"fontSubfamily\":\"Regular\",\"fontSource\":\"build-in\"}":{"dPath":"M4.67 -2.07L12.55 -2.07L12.55 0L2.21 0L2.21 -18.2L4.67 -18.2Z","advanceWidth":13.0556,"advanceHeight":25.4,"leftBearing":2.2098,"topBearing":2.2479,"bbox":{"minX":2.2098,"minY":0,"maxX":12.5476,"maxY":18.199099999999998}},"{\"gid\":48,\"fontFamily\":\"Lato\",\"fontSubfamily\":\"Regular\",\"fontSource\":\"build-in\"}":{"dPath":"M11.16 -6.58Q11.34 -6.27 11.47 -5.94Q11.61 -5.6 11.73 -5.26Q11.86 -5.61 12 -5.94Q12.14 -6.26 12.32 -6.59L18.48 -17.78Q18.64 -18.07 18.82 -18.14Q19 -18.2 19.33 -18.2L21.15 -18.2L21.15 0L18.99 0L18.99 -13.37Q18.99 -13.64 19 -13.94Q19.01 -14.25 19.04 -14.57L12.8 -3.19Q12.48 -2.62 11.91 -2.62L11.56 -2.62Q10.99 -2.62 10.67 -3.19L4.29 -14.6Q4.33 -14.27 4.35 -13.96Q4.37 -13.64 4.37 -13.37L4.37 0L2.21 0L2.21 -18.2L4.03 -18.2Q4.36 -18.2 4.53 -18.14Q4.71 -18.07 4.88 -17.78L11.16 -6.58Z","advanceWidth":23.368,"advanceHeight":25.4,"leftBearing":2.2098,"topBearing":2.2479,"bbox":{"minX":2.2098,"minY":0,"maxX":21.1455,"maxY":18.199099999999998}},"{\"gid\":50,\"fontFamily\":\"Lato\",\"fontSubfamily\":\"Regular\",\"fontSource\":\"build-in\"}":{"dPath":"M19.11 -9.09Q19.11 -7.05 18.47 -5.34Q17.82 -3.63 16.64 -2.4Q15.46 -1.17 13.8 -0.49Q12.14 0.19 10.13 0.19Q8.13 0.19 6.48 -0.49Q4.83 -1.17 3.64 -2.4Q2.46 -3.63 1.82 -5.34Q1.17 -7.05 1.17 -9.09Q1.17 -11.14 1.82 -12.85Q2.46 -14.55 3.64 -15.79Q4.83 -17.03 6.48 -17.72Q8.13 -18.4 10.13 -18.4Q12.14 -18.4 13.8 -17.72Q15.46 -17.03 16.64 -15.79Q17.82 -14.55 18.47 -12.85Q19.11 -11.14 19.11 -9.09ZM16.59 -9.09Q16.59 -10.77 16.13 -12.1Q15.67 -13.44 14.83 -14.36Q14 -15.28 12.8 -15.77Q11.61 -16.27 10.13 -16.27Q8.67 -16.27 7.48 -15.77Q6.29 -15.28 5.44 -14.36Q4.6 -13.44 4.14 -12.1Q3.68 -10.77 3.68 -9.09Q3.68 -7.42 4.14 -6.09Q4.6 -4.76 5.44 -3.84Q6.29 -2.92 7.48 -2.43Q8.67 -1.94 10.13 -1.94Q11.61 -1.94 12.8 -2.43Q14 -2.92 14.83 -3.84Q15.67 -4.76 16.13 -6.09Q16.59 -7.42 16.59 -9.09Z","advanceWidth":20.269199999999998,"advanceHeight":25.4,"leftBearing":1.1683999999999999,"topBearing":2.0446999999999997,"bbox":{"minX":1.1683999999999999,"minY":-0.1905,"maxX":19.1135,"maxY":18.4023}},"{\"gid\":49,\"fontFamily\":\"Lato\",\"fontSubfamily\":\"Regular\",\"fontSource\":\"build-in\"}":{"dPath":"M3.48 -18.2Q3.81 -18.2 3.97 -18.12Q4.13 -18.03 4.33 -17.78L14.87 -4.06Q14.83 -4.39 14.82 -4.71Q14.81 -5.02 14.81 -5.31L14.81 -18.2L16.97 -18.2L16.97 0L15.72 0Q15.43 0 15.23 -0.1Q15.04 -0.2 14.85 -0.44L4.32 -14.15Q4.34 -13.83 4.36 -13.53Q4.37 -13.22 4.37 -12.97L4.37 0L2.21 0L2.21 -18.2L3.48 -18.2Z","advanceWidth":19.2024,"advanceHeight":25.4,"leftBearing":2.2098,"topBearing":2.2479,"bbox":{"minX":2.2098,"minY":0,"maxX":16.9672,"maxY":18.199099999999998}},"{\"gid\":51,\"fontFamily\":\"Lato\",\"fontSubfamily\":\"Regular\",\"fontSource\":\"build-in\"}":{"dPath":"M4.91 -6.81L4.91 0L2.46 0L2.46 -18.2L7.84 -18.2Q9.56 -18.2 10.84 -17.8Q12.12 -17.4 12.95 -16.66Q13.79 -15.93 14.2 -14.88Q14.62 -13.84 14.62 -12.56Q14.62 -11.29 14.17 -10.24Q13.73 -9.18 12.87 -8.42Q12.01 -7.66 10.74 -7.23Q9.47 -6.81 7.84 -6.81ZM4.91 -8.76L7.84 -8.76Q8.89 -8.76 9.7 -9.04Q10.5 -9.32 11.05 -9.82Q11.6 -10.33 11.87 -11.02Q12.15 -11.72 12.15 -12.56Q12.15 -14.3 11.08 -15.28Q10.01 -16.26 7.84 -16.26L4.91 -16.26Z","advanceWidth":15.5194,"advanceHeight":25.4,"leftBearing":2.4638,"topBearing":2.2479,"bbox":{"minX":2.4638,"minY":0,"maxX":14.6177,"maxY":18.199099999999998}},"{\"gid\":52,\"fontFamily\":\"Lato\",\"fontSubfamily\":\"Regular\",\"fontSource\":\"build-in\"}":{"dPath":"M19.11 -9.09Q19.11 -7.81 18.85 -6.65Q18.59 -5.5 18.1 -4.5Q17.6 -3.51 16.89 -2.69Q16.18 -1.88 15.29 -1.28L19.96 3.76L17.93 3.76Q17.48 3.76 17.12 3.63Q16.76 3.51 16.47 3.19L13.27 -0.29Q12.55 -0.06 11.77 0.06Q10.99 0.19 10.13 0.19Q8.13 0.19 6.48 -0.49Q4.83 -1.17 3.64 -2.4Q2.46 -3.63 1.82 -5.34Q1.17 -7.05 1.17 -9.09Q1.17 -11.14 1.82 -12.85Q2.46 -14.55 3.64 -15.79Q4.83 -17.03 6.48 -17.72Q8.13 -18.4 10.13 -18.4Q12.14 -18.4 13.8 -17.72Q15.46 -17.03 16.64 -15.79Q17.82 -14.55 18.47 -12.85Q19.11 -11.14 19.11 -9.09ZM16.59 -9.09Q16.59 -10.77 16.13 -12.1Q15.67 -13.44 14.83 -14.36Q14 -15.28 12.8 -15.77Q11.61 -16.27 10.13 -16.27Q8.67 -16.27 7.48 -15.77Q6.29 -15.28 5.44 -14.36Q4.6 -13.44 4.14 -12.1Q3.68 -10.77 3.68 -9.09Q3.68 -7.42 4.14 -6.09Q4.6 -4.76 5.44 -3.84Q6.29 -2.92 7.48 -2.43Q8.67 -1.94 10.13 -1.94Q11.61 -1.94 12.8 -2.43Q14 -2.92 14.83 -3.84Q15.67 -4.76 16.13 -6.09Q16.59 -7.42 16.59 -9.09Z","advanceWidth":20.269199999999998,"advanceHeight":25.4,"leftBearing":1.1683999999999999,"topBearing":2.0446999999999997,"bbox":{"minX":1.1683999999999999,"minY":-3.7592,"maxX":19.964399999999998,"maxY":18.4023}},"{\"gid\":53,\"fontFamily\":\"Lato\",\"fontSubfamily\":\"Regular\",\"fontSource\":\"build-in\"}":{"dPath":"M4.91 -7.59L4.91 0L2.46 0L2.46 -18.2L7.61 -18.2Q9.33 -18.2 10.59 -17.85Q11.85 -17.5 12.67 -16.84Q13.49 -16.18 13.88 -15.25Q14.27 -14.31 14.27 -13.16Q14.27 -12.19 13.97 -11.35Q13.67 -10.52 13.09 -9.85Q12.51 -9.18 11.68 -8.71Q10.85 -8.24 9.79 -8Q10.25 -7.73 10.6 -7.23L15.91 0L13.73 0Q13.06 0 12.74 -0.52L8.01 -7.02Q7.8 -7.33 7.54 -7.46Q7.29 -7.59 6.78 -7.59ZM4.91 -9.39L7.49 -9.39Q8.57 -9.39 9.39 -9.65Q10.21 -9.91 10.76 -10.38Q11.32 -10.86 11.6 -11.52Q11.87 -12.18 11.87 -12.98Q11.87 -14.6 10.8 -15.43Q9.73 -16.26 7.61 -16.26L4.91 -16.26Z","advanceWidth":16.357599999999998,"advanceHeight":25.4,"leftBearing":2.4638,"topBearing":2.2479,"bbox":{"minX":2.4638,"minY":0,"maxX":15.9131,"maxY":18.199099999999998}},"{\"gid\":54,\"fontFamily\":\"Lato\",\"fontSubfamily\":\"Regular\",\"fontSource\":\"build-in\"}":{"dPath":"M11.53 -15.35Q11.42 -15.16 11.29 -15.07Q11.16 -14.97 10.96 -14.97Q10.74 -14.97 10.46 -15.19Q10.17 -15.41 9.73 -15.67Q9.3 -15.93 8.68 -16.14Q8.06 -16.36 7.19 -16.36Q6.36 -16.36 5.73 -16.14Q5.09 -15.91 4.67 -15.53Q4.24 -15.15 4.03 -14.64Q3.81 -14.12 3.81 -13.53Q3.81 -12.76 4.18 -12.26Q4.56 -11.76 5.18 -11.4Q5.79 -11.05 6.57 -10.79Q7.35 -10.53 8.17 -10.25Q8.99 -9.97 9.77 -9.62Q10.55 -9.27 11.17 -8.74Q11.79 -8.2 12.16 -7.43Q12.53 -6.65 12.53 -5.52Q12.53 -4.33 12.13 -3.28Q11.72 -2.24 10.94 -1.46Q10.16 -0.69 9.02 -0.24Q7.89 0.2 6.44 0.2Q4.67 0.2 3.22 -0.44Q1.77 -1.08 0.74 -2.17L1.45 -3.34Q1.55 -3.48 1.7 -3.58Q1.84 -3.67 2.02 -3.67Q2.29 -3.67 2.63 -3.38Q2.97 -3.1 3.49 -2.76Q4 -2.41 4.73 -2.13Q5.46 -1.84 6.52 -1.84Q7.39 -1.84 8.08 -2.08Q8.76 -2.32 9.24 -2.76Q9.72 -3.2 9.97 -3.81Q10.22 -4.42 10.22 -5.17Q10.22 -5.99 9.85 -6.52Q9.47 -7.05 8.86 -7.4Q8.25 -7.76 7.47 -8.01Q6.69 -8.25 5.87 -8.52Q5.05 -8.78 4.27 -9.12Q3.49 -9.46 2.88 -10.01Q2.27 -10.55 1.9 -11.37Q1.52 -12.19 1.52 -13.4Q1.52 -14.36 1.9 -15.27Q2.27 -16.17 2.98 -16.87Q3.7 -17.56 4.74 -17.98Q5.79 -18.4 7.15 -18.4Q8.67 -18.4 9.93 -17.92Q11.19 -17.44 12.13 -16.52Z","advanceWidth":13.462,"advanceHeight":25.4,"leftBearing":0.7365999999999999,"topBearing":2.0446999999999997,"bbox":{"minX":0.7365999999999999,"minY":-0.2032,"maxX":12.5349,"maxY":18.4023}},"{\"gid\":55,\"fontFamily\":\"Lato\",\"fontSubfamily\":\"Regular\",\"fontSource\":\"build-in\"}":{"dPath":"M14.6 -18.2L14.6 -16.13L8.72 -16.13L8.72 0L6.26 0L6.26 -16.13L0.36 -16.13L0.36 -18.2Z","advanceWidth":14.985999999999999,"advanceHeight":25.4,"leftBearing":0.35559999999999997,"topBearing":2.2479,"bbox":{"minX":0.35559999999999997,"minY":0,"maxX":14.604999999999999,"maxY":18.199099999999998}},"{\"gid\":56,\"fontFamily\":\"Lato\",\"fontSubfamily\":\"Regular\",\"fontSource\":\"build-in\"}":{"dPath":"M9.28 -1.96Q10.41 -1.96 11.3 -2.34Q12.19 -2.72 12.81 -3.4Q13.42 -4.09 13.75 -5.04Q14.07 -5.99 14.07 -7.14L14.07 -18.2L16.52 -18.2L16.52 -7.14Q16.52 -5.56 16.02 -4.22Q15.52 -2.87 14.59 -1.89Q13.65 -0.9 12.31 -0.34Q10.96 0.22 9.28 0.22Q7.61 0.22 6.26 -0.34Q4.91 -0.9 3.98 -1.89Q3.04 -2.87 2.53 -4.22Q2.03 -5.56 2.03 -7.14L2.03 -18.2L4.48 -18.2L4.48 -7.15Q4.48 -6.01 4.81 -5.05Q5.13 -4.1 5.75 -3.42Q6.36 -2.73 7.26 -2.34Q8.15 -1.96 9.28 -1.96Z","advanceWidth":18.541999999999998,"advanceHeight":25.4,"leftBearing":2.032,"topBearing":2.2479,"bbox":{"minX":2.032,"minY":-0.21589999999999998,"maxX":16.5227,"maxY":18.199099999999998}},"{\"gid\":57,\"fontFamily\":\"Lato\",\"fontSubfamily\":\"Regular\",\"fontSource\":\"build-in\"}":{"dPath":"M0.1 -18.2L2.07 -18.2Q2.4 -18.2 2.6 -18.03Q2.81 -17.87 2.91 -17.61L8.05 -4.78Q8.23 -4.34 8.38 -3.84Q8.52 -3.33 8.66 -2.78Q8.78 -3.33 8.91 -3.84Q9.04 -4.34 9.22 -4.78L14.34 -17.61Q14.43 -17.83 14.64 -18.01Q14.86 -18.2 15.18 -18.2L17.16 -18.2L9.74 0L7.52 0Z","advanceWidth":17.272,"advanceHeight":25.4,"leftBearing":0.1016,"topBearing":2.2479,"bbox":{"minX":0.1016,"minY":0,"maxX":17.1577,"maxY":18.199099999999998}},"{\"gid\":58,\"fontFamily\":\"Lato\",\"fontSubfamily\":\"Regular\",\"fontSource\":\"build-in\"}":{"dPath":"M0.18 -18.2L2.22 -18.2Q2.55 -18.2 2.77 -18.03Q2.98 -17.87 3.06 -17.61L6.82 -4.97Q6.92 -4.62 7 -4.23Q7.09 -3.84 7.16 -3.4Q7.25 -3.84 7.34 -4.24Q7.43 -4.64 7.54 -4.97L11.82 -17.61Q11.9 -17.83 12.12 -18.01Q12.34 -18.2 12.66 -18.2L13.37 -18.2Q13.7 -18.2 13.91 -18.03Q14.12 -17.87 14.21 -17.61L18.47 -4.97Q18.69 -4.31 18.87 -3.45Q18.95 -3.87 19.01 -4.25Q19.08 -4.64 19.18 -4.97L22.95 -17.61Q23.01 -17.84 23.23 -18.02Q23.46 -18.2 23.77 -18.2L25.69 -18.2L20.02 0L17.81 0L13.2 -13.88Q13.06 -14.27 12.94 -14.8Q12.88 -14.54 12.82 -14.31Q12.76 -14.07 12.7 -13.88L8.06 0L5.85 0Z","advanceWidth":25.8826,"advanceHeight":25.4,"leftBearing":0.17779999999999999,"topBearing":2.2479,"bbox":{"minX":0.17779999999999999,"minY":0,"maxX":25.6921,"maxY":18.199099999999998}},"{\"gid\":59,\"fontFamily\":\"Lato\",\"fontSubfamily\":\"Regular\",\"fontSource\":\"build-in\"}":{"dPath":"M6.44 -9.35L0.43 -18.2L2.88 -18.2Q3.15 -18.2 3.28 -18.11Q3.4 -18.02 3.51 -17.86L8.25 -10.57Q8.34 -10.83 8.52 -11.15L13 -17.81Q13.12 -17.98 13.25 -18.09Q13.39 -18.2 13.58 -18.2L15.93 -18.2L9.89 -9.46L16.13 0L13.69 0Q13.41 0 13.25 -0.15Q13.09 -0.29 12.99 -0.47L8.12 -8.1Q8.03 -7.84 7.89 -7.59L3.14 -0.47Q3.02 -0.29 2.88 -0.15Q2.73 0 2.46 0L0.18 0Z","advanceWidth":16.3322,"advanceHeight":25.4,"leftBearing":0.17779999999999999,"topBearing":2.2479,"bbox":{"minX":0.17779999999999999,"minY":0,"maxX":16.128999999999998,"maxY":18.199099999999998}},